%YAML:1.0
---
opencv_ml_svm:
   format: 3
   svmType: C_SVC
   kernel:
      type: RBF
      gamma: 1.5000000000000001e-04
   C: 1.2500000000000000e+01
   term_criteria: { epsilon:1.1920928955078125e-07, iterations:1000 }
   var_count: 64
   class_count: 5
   class_labels: !!opencv-matrix
      rows: 5
      cols: 1
      dt: i
      data: [ 0, 1, 2, 3, 4 ]
   sv_total: 1554
   support_vectors:
      - [ 11., 11., 15., 8., 8., 5., 12., 7., 1., 10., 5., 6., 10., 5.,
          21., 9., 6., 10., 5., 10., 4., 12., 11., 10., 10., 9., 4., 14.,
          1., 6., 7., 10., 4., 6., 1., 7., 5., 11., 0., 11., 5., 3., 6.,
          4., 5., 13., 5., 10., 6., 2., 8., 16., 16., 21., 1., 9., 10.,
          3., 14., 10., 2., 11., 2., 0. ]
      - [ 7., 2., 8., 0., 12., 5., 8., 12., 5., 2., 7., 12., 3., 9., 17.,
          7., 0., 10., 9., 16., 15., 25., 4., 5., 10., 9., 7., 0., 7.,
          8., 3., 5., 2., 5., 4., 6., 11., 10., 10., 4., 7., 21., 3., 6.,
          6., 10., 1., 6., 3., 7., 11., 12., 7., 5., 7., 9., 8., 7., 15.,
          13., 5., 18., 8., 4. ]
      - [ 5., 10., 11., 8., 21., 1., 9., 20., 14., 3., 5., 12., 6., 13.,
          8., 4., 3., 7., 19., 3., 6., 7., 10., 8., 0., 10., 2., 26.,
          11., 4., 6., 2., 7., 2., 6., 9., 4., 13., 17., 8., 2., 6., 1.,
          9., 3., 16., 10., 12., 4., 4., 6., 2., 5., 7., 1., 9., 9., 10.,
          7., 11., 2., 8., 9., 7. ]
      - [ 4., 4., 8., 19., 0., 13., 2., 30., 0., 10., 13., 0., 12., 10.,
          0., 7., 17., 2., 33., 22., 2., 1., 1., 2., 4., 4., 9., 3., 5.,
          9., 5., 9., 6., 8., 6., 40., 7., 2., 0., 8., 2., 48., 13., 10.,
          6., 0., 13., 10., 2., 1., 9., 6., 4., 1., 9., 6., 2., 1., 5.,
          0., 0., 1., 2., 12. ]
      - [ 7., 7., 23., 9., 4., 6., 5., 22., 10., 14., 7., 4., 14., 6.,
          8., 2., 11., 8., 25., 7., 3., 0., 6., 6., 8., 3., 7., 11., 7.,
          7., 14., 9., 7., 12., 7., 11., 14., 8., 3., 4., 5., 24., 7.,
          9., 4., 2., 11., 12., 2., 0., 7., 4., 13., 5., 14., 10., 3.,
          3., 8., 1., 4., 3., 1., 2. ]
      - [ 19., 4., 4., 18., 13., 3., 6., 9., 19., 1., 15., 13., 7., 8.,
          3., 4., 4., 10., 6., 6., 4., 9., 12., 5., 9., 7., 8., 10., 5.,
          4., 2., 9., 7., 9., 2., 2., 2., 11., 6., 9., 11., 5., 4., 16.,
          5., 7., 8., 6., 4., 4., 10., 9., 5., 8., 13., 5., 15., 2., 6.,
          8., 13., 10., 3., 19. ]
      - [ 18., 3., 4., 7., 10., 6., 10., 5., 12., 2., 4., 13., 2., 7.,
          8., 7., 0., 9., 4., 7., 5., 15., 10., 12., 11., 11., 4., 8.,
          8., 7., 3., 5., 4., 9., 9., 7., 4., 16., 16., 9., 8., 0., 11.,
          5., 8., 7., 4., 9., 4., 3., 8., 15., 20., 11., 2., 7., 10., 5.,
          8., 15., 7., 10., 6., 6. ]
      - [ 6., 3., 5., 9., 10., 6., 1., 21., 4., 5., 5., 6., 14., 13., 1.,
          3., 15., 6., 27., 11., 9., 8., 8., 6., 1., 10., 5., 0., 10.,
          4., 1., 9., 8., 10., 3., 24., 14., 2., 6., 12., 5., 24., 18.,
          6., 16., 0., 25., 10., 2., 2., 5., 8., 2., 7., 9., 5., 7., 0.,
          11., 1., 1., 2., 8., 5. ]
      - [ 5., 6., 9., 8., 4., 7., 5., 9., 6., 16., 11., 3., 2., 5., 10.,
          6., 8., 3., 29., 18., 3., 6., 6., 2., 2., 11., 6., 3., 9., 9.,
          7., 6., 9., 3., 15., 13., 0., 10., 6., 9., 12., 22., 16., 9.,
          13., 3., 28., 24., 3., 3., 1., 3., 1., 5., 3., 6., 4., 3., 10.,
          6., 2., 7., 5., 6. ]
      - [ 7., 7., 3., 9., 18., 6., 6., 5., 1., 5., 12., 8., 8., 5., 6.,
          2., 3., 7., 11., 8., 5., 15., 12., 10., 2., 5., 9., 8., 8.,
          11., 9., 8., 3., 7., 5., 9., 10., 16., 5., 5., 10., 20., 6.,
          4., 8., 10., 16., 7., 8., 4., 2., 3., 4., 9., 4., 8., 18., 6.,
          6., 9., 7., 12., 7., 13. ]
      - [ 7., 4., 3., 4., 2., 2., 6., 15., 8., 6., 7., 11., 11., 9., 2.,
          4., 4., 2., 22., 9., 6., 34., 4., 8., 5., 5., 4., 0., 7., 5.,
          3., 7., 6., 4., 1., 13., 8., 17., 4., 12., 0., 22., 34., 13.,
          7., 0., 10., 6., 6., 9., 24., 12., 2., 2., 19., 4., 8., 1., 2.,
          8., 2., 7., 1., 10. ]
      - [ 5., 4., 7., 7., 13., 6., 7., 12., 13., 4., 7., 11., 6., 10.,
          11., 10., 5., 11., 11., 20., 1., 10., 4., 9., 5., 9., 7., 5.,
          5., 4., 10., 7., 3., 10., 4., 11., 11., 6., 6., 5., 5., 8.,
          10., 7., 7., 12., 14., 19., 3., 10., 5., 14., 4., 3., 6., 7.,
          5., 6., 11., 4., 3., 11., 9., 5. ]
      - [ 15., 6., 9., 3., 2., 7., 7., 23., 2., 5., 8., 12., 9., 7., 6.,
          14., 9., 7., 11., 9., 6., 6., 4., 0., 9., 1., 17., 11., 1., 8.,
          12., 8., 12., 11., 14., 7., 7., 7., 5., 7., 8., 5., 5., 13.,
          14., 4., 12., 17., 9., 4., 6., 4., 10., 6., 6., 8., 2., 6., 3.,
          3., 25., 4., 0., 2. ]
      - [ 14., 6., 6., 6., 2., 7., 10., 15., 5., 6., 4., 12., 15., 2.,
          11., 5., 2., 5., 3., 4., 3., 10., 8., 9., 6., 8., 4., 47., 10.,
          3., 5., 5., 6., 10., 7., 8., 6., 11., 7., 3., 13., 7., 2., 10.,
          19., 7., 7., 7., 4., 6., 4., 11., 10., 12., 4., 8., 7., 8., 3.,
          8., 10., 9., 1., 7. ]
      - [ 7., 3., 4., 3., 14., 5., 24., 9., 13., 7., 3., 14., 4., 10.,
          18., 11., 1., 10., 4., 10., 5., 12., 6., 8., 10., 7., 2., 2.,
          7., 3., 23., 3., 3., 7., 9., 3., 5., 16., 19., 8., 7., 4., 0.,
          14., 5., 6., 0., 2., 11., 9., 8., 14., 1., 2., 3., 2., 5., 14.,
          4., 22., 5., 21., 6., 3. ]
      - [ 3., 4., 4., 4., 5., 9., 15., 7., 9., 4., 8., 8., 8., 10., 4.,
          10., 4., 8., 5., 10., 14., 9., 5., 3., 7., 23., 7., 0., 11.,
          9., 7., 2., 4., 20., 3., 6., 3., 13., 8., 8., 7., 6., 5., 9.,
          22., 16., 0., 0., 8., 9., 14., 15., 4., 3., 1., 10., 10., 4.,
          14., 12., 9., 6., 13., 2. ]
      - [ 12., 6., 4., 3., 10., 2., 13., 5., 5., 5., 11., 7., 12., 7.,
          5., 3., 6., 10., 6., 7., 8., 16., 5., 3., 8., 3., 2., 3., 10.,
          11., 8., 0., 3., 18., 9., 26., 6., 8., 12., 7., 6., 8., 1.,
          22., 11., 7., 4., 1., 12., 6., 12., 4., 7., 5., 7., 13., 16.,
          3., 7., 19., 2., 10., 3., 9. ]
      - [ 9., 14., 7., 33., 3., 5., 2., 26., 4., 1., 13., 5., 4., 5., 0.,
          7., 10., 2., 14., 1., 9., 3., 10., 4., 4., 3., 2., 4., 2., 10.,
          5., 7., 20., 9., 16., 23., 10., 4., 3., 3., 3., 15., 2., 7.,
          9., 1., 11., 25., 5., 3., 5., 5., 22., 15., 11., 16., 1., 8.,
          4., 0., 6., 1., 4., 5. ]
      - [ 12., 3., 18., 7., 0., 3., 1., 13., 2., 11., 12., 1., 6., 13.,
          0., 10., 18., 3., 19., 6., 12., 11., 1., 3., 9., 2., 9., 9.,
          6., 9., 8., 12., 7., 6., 3., 13., 6., 2., 0., 9., 3., 12., 16.,
          10., 17., 4., 11., 23., 0., 3., 18., 5., 8., 9., 6., 11., 3.,
          5., 8., 1., 4., 8., 10., 10. ]
      - [ 6., 6., 15., 10., 4., 5., 0., 18., 3., 14., 5., 1., 14., 4.,
          0., 6., 13., 1., 14., 21., 9., 3., 11., 3., 4., 1., 10., 0.,
          4., 7., 13., 14., 12., 10., 10., 17., 3., 1., 0., 12., 9., 15.,
          10., 7., 7., 0., 9., 18., 1., 4., 8., 8., 19., 12., 20., 15.,
          2., 9., 6., 0., 7., 3., 4., 3. ]
      - [ 15., 11., 5., 5., 9., 4., 5., 11., 2., 8., 16., 8., 7., 11.,
          10., 3., 13., 6., 15., 10., 7., 5., 3., 9., 1., 6., 8., 7., 4.,
          11., 8., 4., 11., 17., 6., 6., 6., 4., 7., 8., 1., 18., 6., 6.,
          11., 8., 6., 7., 8., 8., 17., 6., 3., 5., 7., 5., 3., 6., 14.,
          8., 8., 10., 9., 8. ]
      - [ 12., 4., 15., 5., 0., 5., 16., 14., 2., 4., 9., 8., 2., 8., 7.,
          7., 10., 4., 18., 12., 5., 11., 3., 10., 4., 8., 9., 3., 4.,
          8., 7., 9., 3., 10., 7., 11., 6., 2., 5., 8., 8., 5., 6., 7.,
          10., 4., 7., 15., 13., 13., 7., 4., 12., 6., 4., 4., 6., 13.,
          19., 11., 10., 10., 1., 10. ]
      - [ 13., 10., 14., 5., 11., 10., 19., 11., 5., 14., 6., 16., 9.,
          8., 7., 3., 10., 3., 9., 6., 10., 5., 5., 8., 6., 2., 6., 11.,
          7., 3., 18., 5., 5., 3., 5., 8., 10., 18., 2., 2., 13., 7., 3.,
          6., 10., 12., 8., 13., 6., 4., 3., 4., 9., 6., 5., 8., 14., 6.,
          2., 17., 1., 4., 2., 9. ]
      - [ 10., 6., 9., 5., 9., 5., 20., 27., 1., 3., 15., 6., 4., 8.,
          10., 3., 16., 3., 24., 16., 18., 4., 2., 2., 5., 7., 4., 7.,
          13., 4., 7., 3., 3., 4., 4., 27., 12., 2., 4., 2., 2., 30., 8.,
          7., 12., 2., 9., 14., 1., 3., 4., 6., 7., 3., 5., 8., 7., 8.,
          6., 2., 6., 5., 6., 5. ]
      - [ 7., 4., 5., 8., 13., 8., 8., 23., 23., 4., 7., 11., 7., 4., 1.,
          6., 10., 4., 13., 14., 4., 17., 6., 8., 6., 9., 6., 4., 9., 6.,
          9., 5., 9., 2., 7., 11., 11., 9., 15., 8., 13., 10., 6., 9.,
          7., 4., 8., 8., 3., 3., 4., 14., 2., 8., 7., 6., 5., 7., 10.,
          8., 4., 4., 4., 5. ]
      - [ 5., 4., 9., 5., 12., 6., 3., 20., 5., 4., 11., 11., 11., 2.,
          13., 6., 7., 9., 20., 12., 17., 10., 9., 5., 3., 2., 4., 12.,
          8., 7., 11., 3., 0., 4., 7., 12., 11., 11., 7., 5., 5., 22.,
          5., 4., 9., 6., 21., 14., 7., 2., 1., 8., 6., 8., 1., 8., 5.,
          8., 13., 10., 5., 4., 3., 2. ]
      - [ 10., 10., 6., 8., 9., 7., 12., 4., 5., 20., 14., 7., 1., 2.,
          8., 3., 6., 2., 6., 7., 1., 10., 6., 14., 9., 10., 4., 0., 2.,
          9., 6., 10., 5., 9., 11., 6., 10., 16., 17., 7., 15., 5., 6.,
          11., 7., 7., 9., 5., 14., 9., 7., 4., 7., 8., 0., 12., 19., 6.,
          3., 9., 2., 16., 4., 6. ]
      - [ 10., 5., 7., 19., 0., 4., 5., 20., 16., 7., 4., 7., 8., 11.,
          0., 8., 12., 6., 27., 17., 8., 3., 5., 7., 5., 2., 5., 5., 7.,
          7., 3., 24., 14., 9., 6., 20., 11., 1., 1., 5., 3., 18., 5.,
          7., 9., 0., 22., 6., 1., 4., 13., 10., 9., 5., 8., 13., 2., 0.,
          7., 2., 4., 4., 2., 5. ]
      - [ 7., 3., 16., 6., 2., 8., 3., 14., 3., 9., 6., 5., 6., 7., 2.,
          4., 16., 7., 14., 13., 7., 6., 9., 7., 5., 7., 5., 2., 9., 5.,
          10., 8., 4., 14., 5., 22., 5., 18., 0., 5., 7., 21., 6., 5.,
          5., 3., 30., 14., 7., 11., 12., 4., 11., 2., 6., 15., 2., 5.,
          12., 1., 4., 5., 5., 3. ]
      - [ 19., 5., 12., 7., 8., 6., 0., 11., 3., 6., 14., 4., 4., 16.,
          7., 10., 9., 2., 8., 14., 11., 11., 8., 2., 10., 4., 4., 9.,
          11., 15., 3., 5., 4., 12., 7., 6., 11., 3., 3., 4., 9., 14.,
          12., 5., 27., 0., 11., 8., 10., 3., 7., 7., 8., 11., 7., 11.,
          2., 7., 6., 8., 5., 6., 3., 5. ]
      - [ 4., 8., 9., 17., 0., 6., 0., 35., 1., 9., 6., 0., 15., 10., 0.,
          9., 17., 1., 44., 14., 3., 2., 1., 3., 6., 2., 3., 1., 8., 5.,
          5., 12., 7., 8., 5., 37., 20., 0., 0., 3., 4., 28., 18., 2.,
          18., 0., 31., 13., 4., 1., 4., 3., 4., 0., 14., 2., 0., 1., 6.,
          0., 3., 2., 1., 5. ]
      - [ 13., 3., 13., 2., 6., 7., 9., 18., 1., 5., 8., 1., 5., 15., 4.,
          10., 13., 3., 15., 17., 11., 9., 5., 10., 12., 6., 11., 3.,
          11., 10., 6., 4., 3., 11., 3., 18., 4., 8., 5., 12., 4., 7.,
          6., 5., 13., 2., 8., 6., 4., 7., 12., 9., 8., 4., 5., 11., 8.,
          4., 5., 6., 2., 12., 13., 9. ]
      - [ 10., 1., 5., 11., 4., 5., 13., 19., 2., 15., 24., 9., 5., 6.,
          2., 4., 10., 5., 10., 12., 10., 5., 12., 7., 9., 3., 6., 1.,
          2., 13., 5., 11., 6., 15., 7., 11., 13., 10., 8., 3., 6., 17.,
          7., 10., 27., 3., 8., 6., 8., 2., 14., 5., 4., 2., 9., 7., 4.,
          4., 12., 9., 2., 3., 0., 2. ]
      - [ 12., 11., 11., 13., 5., 10., 2., 25., 4., 4., 5., 2., 13., 4.,
          15., 1., 10., 5., 21., 15., 11., 11., 9., 2., 6., 11., 6., 4.,
          25., 7., 6., 3., 4., 3., 5., 17., 8., 7., 3., 3., 9., 19., 4.,
          6., 16., 3., 11., 6., 6., 1., 3., 4., 4., 14., 3., 16., 3., 7.,
          5., 11., 2., 2., 2., 4. ]
      - [ 2., 7., 18., 10., 2., 5., 0., 20., 3., 5., 6., 1., 8., 16., 6.,
          9., 19., 0., 15., 8., 11., 8., 5., 6., 9., 4., 2., 6., 5., 6.,
          3., 12., 5., 5., 7., 32., 7., 3., 1., 12., 1., 16., 15., 4.,
          5., 9., 3., 13., 4., 5., 18., 6., 6., 9., 18., 13., 5., 1.,
          11., 3., 10., 3., 7., 6. ]
      - [ 12., 0., 1., 5., 8., 5., 15., 15., 4., 13., 15., 18., 1., 6.,
          7., 14., 4., 4., 15., 6., 3., 19., 9., 10., 14., 6., 5., 0.,
          5., 9., 7., 6., 7., 18., 6., 10., 7., 8., 2., 5., 9., 21., 4.,
          8., 6., 10., 10., 8., 14., 5., 6., 5., 9., 6., 4., 3., 10.,
          10., 3., 10., 6., 8., 1., 0. ]
      - [ 14., 2., 7., 5., 2., 9., 14., 7., 11., 9., 9., 7., 9., 5., 5.,
          10., 7., 6., 18., 7., 5., 13., 5., 9., 10., 4., 12., 0., 10.,
          8., 9., 7., 11., 18., 9., 8., 10., 10., 6., 5., 7., 9., 11.,
          11., 6., 3., 6., 8., 5., 5., 8., 8., 2., 6., 6., 12., 7., 4.,
          2., 6., 10., 15., 9., 2. ]
      - [ 2., 1., 6., 22., 1., 7., 2., 32., 4., 8., 15., 0., 7., 13., 2.,
          4., 10., 5., 15., 10., 9., 6., 10., 5., 1., 1., 1., 3., 1.,
          23., 2., 16., 4., 5., 4., 36., 13., 3., 2., 10., 1., 30., 18.,
          4., 11., 4., 20., 9., 5., 1., 8., 1., 9., 3., 25., 6., 2., 2.,
          9., 2., 2., 3., 0., 4. ]
      - [ 8., 8., 6., 32., 7., 7., 2., 21., 10., 2., 14., 3., 9., 10.,
          4., 5., 2., 5., 15., 6., 7., 9., 9., 7., 2., 2., 7., 19., 5.,
          4., 10., 20., 3., 7., 7., 8., 11., 4., 4., 6., 3., 9., 2., 4.,
          2., 8., 14., 6., 8., 9., 4., 7., 20., 4., 15., 2., 7., 10., 7.,
          3., 7., 6., 10., 6. ]
      - [ 2., 8., 2., 1., 5., 5., 7., 30., 41., 2., 8., 6., 8., 3., 2.,
          1., 9., 4., 29., 5., 11., 7., 3., 3., 0., 9., 2., 18., 5., 3.,
          3., 4., 3., 4., 2., 16., 11., 11., 4., 4., 2., 15., 5., 8., 9.,
          2., 13., 13., 0., 4., 0., 2., 3., 1., 2., 8., 2., 11., 6., 1.,
          0., 3., 1., 2. ]
      - [ 6., 8., 6., 4., 19., 12., 12., 5., 7., 14., 12., 9., 2., 7.,
          11., 5., 3., 5., 7., 6., 4., 15., 3., 12., 9., 7., 5., 3., 4.,
          5., 12., 10., 6., 11., 4., 8., 2., 15., 15., 5., 3., 9., 6.,
          16., 11., 5., 2., 8., 9., 8., 8., 12., 5., 5., 4., 4., 19., 6.,
          12., 11., 1., 10., 7., 4. ]
      - [ 8., 4., 5., 3., 6., 5., 5., 5., 7., 21., 13., 16., 6., 6., 7.,
          3., 12., 6., 19., 16., 11., 7., 0., 4., 3., 4., 6., 0., 10.,
          9., 5., 5., 17., 11., 3., 16., 11., 9., 12., 4., 16., 19., 3.,
          6., 20., 4., 16., 11., 3., 7., 10., 9., 2., 7., 3., 7., 11.,
          2., 2., 5., 1., 5., 5., 6. ]
      - [ 15., 7., 7., 7., 7., 6., 7., 3., 6., 15., 10., 4., 3., 1., 8.,
          7., 10., 8., 11., 11., 7., 9., 6., 9., 13., 8., 6., 13., 7.,
          8., 11., 13., 4., 12., 5., 9., 8., 12., 5., 0., 6., 3., 5.,
          10., 13., 9., 6., 6., 6., 6., 7., 7., 12., 12., 3., 12., 6.,
          4., 9., 8., 8., 13., 7., 4. ]
      - [ 5., 4., 15., 2., 13., 8., 3., 10., 4., 6., 6., 9., 7., 9., 7.,
          7., 6., 12., 7., 7., 9., 7., 6., 9., 11., 5., 11., 3., 25.,
          10., 3., 5., 14., 6., 11., 5., 9., 4., 13., 13., 5., 3., 8.,
          6., 10., 7., 5., 10., 9., 7., 10., 5., 6., 9., 3., 9., 10., 2.,
          16., 8., 2., 8., 9., 7. ]
      - [ 19., 10., 4., 3., 0., 5., 1., 8., 12., 11., 20., 4., 3., 9.,
          4., 6., 5., 2., 13., 8., 7., 23., 6., 8., 1., 6., 8., 2., 3.,
          6., 3., 7., 1., 24., 8., 9., 12., 4., 8., 1., 5., 24., 11.,
          10., 20., 2., 13., 7., 4., 4., 34., 9., 6., 5., 10., 3., 3.,
          0., 4., 15., 4., 3., 2., 8. ]
      - [ 7., 7., 4., 5., 10., 6., 14., 5., 16., 6., 4., 10., 0., 12.,
          2., 7., 3., 6., 5., 4., 8., 20., 10., 18., 8., 14., 7., 4., 5.,
          12., 6., 4., 5., 7., 2., 5., 3., 18., 8., 5., 6., 1., 9., 11.,
          8., 5., 1., 3., 7., 9., 11., 16., 19., 7., 5., 7., 7., 3., 10.,
          14., 12., 5., 13., 9. ]
      - [ 13., 3., 8., 8., 6., 6., 4., 15., 2., 9., 5., 15., 7., 3., 9.,
          11., 11., 11., 6., 12., 10., 9., 3., 16., 5., 6., 5., 11., 8.,
          7., 14., 3., 9., 8., 4., 18., 6., 14., 4., 12., 3., 13., 7.,
          12., 8., 9., 16., 24., 3., 6., 3., 8., 5., 6., 1., 6., 6., 4.,
          5., 10., 1., 3., 5., 0. ]
      - [ 13., 9., 11., 18., 1., 11., 0., 12., 1., 12., 8., 1., 8., 12.,
          3., 15., 9., 7., 27., 12., 16., 7., 7., 11., 7., 7., 4., 3.,
          5., 6., 5., 10., 7., 6., 8., 21., 5., 2., 1., 9., 6., 12., 17.,
          6., 6., 3., 10., 8., 2., 2., 12., 2., 9., 1., 32., 10., 0., 6.,
          5., 1., 3., 0., 2., 8. ]
      - [ 10., 7., 7., 5., 10., 9., 5., 10., 10., 10., 8., 2., 9., 7.,
          10., 8., 7., 9., 14., 10., 6., 15., 7., 11., 3., 9., 7., 0.,
          9., 15., 8., 8., 4., 6., 3., 8., 14., 5., 12., 9., 1., 3., 17.,
          3., 20., 3., 4., 7., 6., 3., 11., 7., 9., 10., 9., 10., 2., 9.,
          8., 10., 3., 5., 7., 7. ]
      - [ 13., 6., 7., 7., 6., 3., 2., 12., 3., 8., 14., 7., 5., 3., 1.,
          6., 10., 2., 23., 4., 9., 14., 5., 8., 4., 6., 4., 2., 10., 8.,
          2., 20., 8., 15., 3., 19., 6., 10., 1., 13., 4., 36., 6., 7.,
          6., 1., 22., 6., 6., 3., 18., 11., 3., 13., 13., 2., 2., 6.,
          5., 6., 0., 8., 3., 4. ]
      - [ 8., 8., 6., 2., 6., 4., 12., 19., 3., 5., 7., 8., 9., 9., 4.,
          10., 9., 1., 16., 16., 16., 9., 7., 6., 5., 9., 6., 5., 9., 5.,
          8., 9., 10., 3., 5., 20., 18., 7., 2., 9., 2., 10., 7., 2., 8.,
          4., 15., 10., 9., 4., 8., 4., 8., 10., 11., 13., 4., 3., 6.,
          4., 9., 7., 6., 6. ]
      - [ 8., 13., 14., 3., 1., 7., 15., 1., 1., 13., 5., 1., 13., 2.,
          3., 10., 13., 6., 4., 12., 3., 3., 2., 6., 15., 4., 8., 1., 4.,
          11., 32., 11., 20., 4., 9., 5., 10., 6., 2., 16., 4., 4., 4.,
          5., 7., 4., 5., 10., 15., 20., 4., 2., 16., 5., 6., 8., 7.,
          10., 9., 1., 29., 3., 5., 0. ]
      - [ 12., 10., 7., 1., 10., 5., 15., 9., 3., 9., 14., 8., 8., 3.,
          7., 5., 5., 5., 8., 5., 3., 3., 13., 4., 9., 6., 4., 8., 5.,
          14., 5., 1., 19., 14., 7., 10., 4., 16., 14., 3., 10., 12., 7.,
          26., 11., 3., 7., 6., 8., 8., 3., 7., 5., 2., 5., 7., 14., 5.,
          6., 5., 3., 19., 9., 1. ]
      - [ 9., 3., 7., 2., 4., 1., 5., 12., 0., 11., 6., 12., 5., 11., 8.,
          9., 6., 10., 12., 9., 2., 8., 6., 10., 3., 4., 5., 2., 9., 12.,
          11., 2., 5., 10., 2., 15., 8., 15., 11., 7., 4., 20., 2., 19.,
          4., 5., 10., 7., 3., 8., 6., 22., 7., 10., 6., 10., 14., 4.,
          7., 23., 2., 16., 1., 1. ]
      - [ 36., 8., 7., 12., 2., 6., 3., 23., 0., 10., 14., 3., 7., 3.,
          5., 4., 6., 8., 19., 8., 5., 9., 5., 7., 6., 5., 5., 13., 7.,
          7., 5., 10., 14., 8., 4., 15., 12., 5., 6., 8., 7., 14., 4.,
          4., 11., 8., 10., 11., 4., 4., 23., 2., 4., 4., 13., 6., 4.,
          3., 5., 2., 2., 1., 7., 7. ]
      - [ 5., 8., 9., 2., 13., 7., 4., 13., 20., 16., 13., 15., 3., 2.,
          7., 10., 6., 10., 3., 6., 4., 10., 0., 6., 11., 6., 6., 0.,
          15., 8., 4., 12., 9., 14., 5., 6., 2., 5., 10., 8., 8., 18.,
          7., 17., 3., 6., 9., 1., 5., 15., 7., 5., 6., 1., 9., 13., 9.,
          7., 10., 2., 1., 3., 13., 12. ]
      - [ 9., 1., 5., 1., 12., 8., 5., 9., 2., 12., 7., 6., 4., 6., 1.,
          8., 4., 5., 21., 9., 7., 18., 9., 9., 6., 5., 8., 3., 12., 4.,
          2., 5., 9., 8., 10., 29., 12., 14., 3., 7., 3., 20., 4., 9.,
          9., 3., 15., 5., 4., 4., 8., 5., 3., 17., 6., 6., 3., 4., 10.,
          17., 6., 5., 6., 13. ]
      - [ 9., 4., 2., 3., 4., 3., 8., 12., 7., 6., 5., 10., 8., 6., 4.,
          8., 5., 5., 15., 16., 6., 16., 7., 9., 8., 7., 5., 0., 5., 8.,
          3., 5., 3., 23., 5., 7., 12., 11., 10., 3., 11., 10., 13., 10.,
          8., 2., 3., 8., 7., 4., 18., 26., 4., 6., 5., 8., 9., 4., 6.,
          10., 5., 12., 12., 6. ]
      - [ 11., 2., 5., 5., 12., 8., 18., 14., 9., 3., 6., 13., 4., 9.,
          11., 6., 5., 6., 14., 1., 14., 7., 8., 5., 3., 10., 9., 10.,
          13., 4., 11., 4., 6., 10., 4., 8., 4., 10., 9., 10., 5., 4.,
          2., 6., 13., 6., 5., 9., 6., 13., 5., 8., 7., 3., 4., 9., 13.,
          4., 13., 13., 1., 5., 12., 13. ]
      - [ 0., 5., 1., 10., 5., 10., 5., 15., 4., 29., 8., 6., 7., 5., 1.,
          12., 10., 8., 18., 8., 5., 14., 2., 6., 11., 6., 8., 1., 14.,
          12., 3., 3., 12., 11., 6., 9., 25., 11., 7., 14., 4., 5., 13.,
          6., 9., 1., 7., 12., 10., 3., 16., 7., 6., 10., 11., 5., 4.,
          1., 2., 3., 4., 4., 6., 4. ]
      - [ 13., 7., 7., 2., 6., 3., 10., 15., 21., 3., 11., 9., 2., 11.,
          11., 13., 5., 4., 14., 7., 2., 18., 1., 10., 4., 8., 18., 0.,
          11., 7., 11., 2., 6., 15., 10., 3., 0., 12., 5., 3., 8., 2.,
          5., 20., 8., 9., 5., 3., 5., 14., 8., 12., 3., 1., 11., 0.,
          14., 6., 4., 9., 3., 11., 10., 9. ]
      - [ 7., 5., 7., 13., 5., 4., 5., 14., 4., 9., 9., 3., 7., 5., 5.,
          4., 7., 1., 16., 9., 20., 10., 8., 4., 14., 10., 6., 13., 18.,
          12., 10., 5., 4., 7., 6., 14., 4., 3., 6., 9., 6., 15., 2., 4.,
          11., 6., 17., 14., 7., 8., 6., 4., 9., 6., 6., 6., 3., 4., 9.,
          3., 8., 10., 7., 7. ]
      - [ 14., 2., 3., 7., 2., 4., 6., 27., 9., 7., 7., 15., 3., 5., 5.,
          12., 5., 4., 20., 13., 1., 13., 4., 8., 6., 4., 8., 2., 10.,
          3., 3., 4., 5., 1., 1., 19., 14., 8., 5., 10., 2., 54., 7., 6.,
          12., 0., 13., 6., 4., 5., 6., 18., 6., 1., 17., 5., 3., 0., 7.,
          8., 0., 5., 9., 7. ]
      - [ 15., 7., 21., 8., 1., 5., 2., 28., 3., 8., 10., 0., 6., 4.,
          10., 7., 12., 1., 14., 14., 19., 10., 20., 7., 5., 1., 2., 23.,
          3., 7., 1., 12., 11., 6., 10., 22., 2., 0., 1., 9., 1., 5., 8.,
          4., 10., 2., 12., 12., 4., 3., 4., 4., 11., 7., 9., 13., 6.,
          4., 12., 1., 15., 1., 2., 3. ]
      - [ 14., 16., 2., 23., 6., 2., 3., 6., 3., 4., 8., 4., 14., 10.,
          1., 6., 8., 11., 23., 15., 9., 8., 4., 4., 3., 11., 2., 7., 8.,
          9., 5., 6., 6., 7., 4., 34., 7., 3., 6., 3., 2., 22., 12., 2.,
          10., 0., 5., 14., 1., 4., 17., 4., 4., 10., 27., 7., 6., 0.,
          6., 3., 1., 4., 3., 11. ]
      - [ 3., 6., 3., 11., 0., 11., 1., 22., 1., 18., 6., 0., 18., 11.,
          1., 8., 15., 1., 21., 18., 5., 6., 3., 6., 5., 4., 9., 0., 7.,
          15., 10., 16., 11., 10., 8., 18., 16., 0., 2., 6., 3., 20.,
          11., 2., 11., 0., 27., 9., 7., 4., 10., 2., 1., 4., 17., 12.,
          2., 1., 6., 2., 3., 0., 1., 13. ]
      - [ 22., 0., 7., 1., 3., 3., 42., 20., 4., 2., 9., 10., 5., 2.,
          13., 10., 4., 5., 18., 11., 7., 15., 4., 7., 2., 8., 2., 5.,
          14., 8., 2., 10., 2., 10., 3., 17., 3., 8., 5., 3., 4., 22.,
          1., 6., 11., 10., 5., 4., 4., 2., 17., 11., 3., 4., 5., 5.,
          10., 3., 6., 14., 3., 13., 7., 4. ]
      - [ 7., 9., 5., 3., 9., 3., 19., 22., 6., 2., 1., 19., 3., 5., 10.,
          3., 4., 3., 7., 3., 12., 10., 7., 11., 0., 9., 10., 5., 5., 5.,
          7., 3., 0., 4., 5., 11., 5., 21., 9., 4., 12., 19., 3., 13.,
          5., 20., 8., 7., 3., 7., 2., 4., 9., 16., 1., 5., 18., 17., 4.,
          22., 0., 15., 3., 1. ]
      - [ 9., 2., 11., 8., 2., 5., 9., 10., 3., 1., 6., 10., 11., 3.,
          10., 4., 8., 5., 3., 2., 8., 13., 4., 12., 11., 2., 9., 4., 8.,
          12., 9., 2., 15., 10., 13., 2., 5., 4., 9., 6., 5., 6., 15.,
          7., 11., 8., 7., 11., 9., 8., 11., 10., 8., 6., 4., 11., 16.,
          15., 4., 12., 26., 6., 3., 1. ]
      - [ 4., 9., 11., 7., 2., 5., 13., 32., 1., 4., 5., 12., 2., 8., 5.,
          2., 10., 9., 34., 3., 12., 13., 7., 3., 5., 2., 11., 0., 4.,
          19., 3., 12., 3., 9., 3., 19., 27., 9., 4., 1., 5., 28., 5.,
          7., 8., 0., 14., 10., 0., 3., 7., 2., 4., 11., 6., 2., 11., 1.,
          5., 13., 3., 9., 1., 1. ]
      - [ 1., 2., 9., 15., 2., 5., 3., 22., 2., 6., 15., 0., 11., 10.,
          3., 4., 8., 6., 32., 23., 5., 2., 8., 5., 1., 4., 3., 41., 7.,
          3., 2., 11., 3., 3., 8., 17., 7., 1., 1., 5., 2., 31., 7., 7.,
          17., 4., 11., 4., 6., 3., 11., 6., 20., 10., 15., 4., 1., 3.,
          6., 4., 0., 3., 4., 5. ]
      - [ 6., 5., 18., 13., 0., 8., 4., 20., 10., 12., 15., 4., 15., 12.,
          10., 4., 7., 2., 20., 12., 7., 10., 2., 4., 6., 0., 5., 1., 7.,
          10., 6., 10., 9., 3., 3., 19., 9., 4., 4., 4., 3., 13., 12.,
          21., 11., 4., 10., 8., 5., 5., 13., 4., 8., 4., 6., 10., 4.,
          3., 3., 4., 4., 5., 14., 6. ]
      - [ 9., 7., 19., 1., 4., 6., 5., 13., 4., 12., 10., 4., 10., 3.,
          2., 7., 13., 4., 10., 9., 14., 8., 7., 8., 5., 6., 13., 3., 6.,
          13., 9., 9., 7., 14., 9., 24., 5., 1., 1., 14., 7., 11., 5.,
          8., 5., 2., 5., 21., 6., 5., 3., 7., 17., 9., 5., 18., 3., 7.,
          11., 1., 5., 4., 2., 5. ]
      - [ 5., 4., 3., 12., 1., 7., 0., 31., 1., 19., 8., 1., 11., 5., 2.,
          11., 19., 9., 10., 14., 14., 4., 6., 3., 2., 2., 2., 15., 8.,
          7., 8., 13., 9., 8., 5., 12., 11., 2., 0., 5., 2., 36., 21.,
          1., 9., 0., 16., 18., 4., 5., 14., 6., 13., 1., 10., 6., 0.,
          3., 1., 0., 14., 2., 4., 5. ]
      - [ 16., 3., 9., 2., 2., 9., 1., 10., 5., 10., 7., 4., 4., 9., 12.,
          10., 12., 4., 19., 8., 10., 12., 5., 10., 12., 2., 25., 2., 4.,
          13., 5., 6., 7., 21., 9., 18., 7., 2., 8., 13., 2., 7., 7., 2.,
          11., 5., 8., 9., 1., 4., 5., 2., 8., 13., 8., 8., 15., 1., 4.,
          11., 7., 6., 4., 5. ]
      - [ 8., 5., 11., 22., 9., 5., 1., 10., 8., 15., 17., 13., 3., 10.,
          0., 15., 5., 3., 8., 9., 3., 10., 3., 7., 8., 4., 5., 2., 12.,
          7., 12., 4., 7., 8., 12., 10., 6., 13., 7., 2., 8., 13., 5.,
          14., 15., 2., 5., 5., 9., 7., 16., 9., 2., 2., 19., 11., 11.,
          4., 4., 4., 0., 6., 2., 8. ]
      - [ 10., 1., 3., 3., 17., 6., 18., 1., 12., 7., 5., 3., 0., 5.,
          15., 5., 6., 13., 1., 1., 4., 13., 3., 12., 6., 8., 6., 0.,
          14., 1., 4., 5., 2., 11., 3., 3., 0., 31., 22., 3., 7., 5., 2.,
          35., 3., 10., 6., 4., 5., 7., 8., 15., 0., 2., 1., 1., 19., 2.,
          11., 36., 2., 19., 15., 2. ]
      - [ 10., 14., 14., 16., 1., 4., 0., 14., 1., 8., 7., 2., 12., 14.,
          0., 7., 13., 3., 38., 7., 9., 11., 2., 10., 4., 4., 3., 6., 7.,
          2., 8., 5., 2., 7., 6., 12., 7., 4., 2., 5., 2., 14., 22., 8.,
          12., 4., 8., 13., 0., 6., 28., 6., 5., 5., 17., 8., 5., 1., 8.,
          5., 4., 4., 7., 7. ]
      - [ 12., 7., 6., 5., 5., 6., 18., 19., 3., 3., 6., 5., 11., 5., 4.,
          4., 10., 14., 13., 8., 4., 10., 6., 4., 10., 2., 6., 12., 3.,
          13., 3., 8., 2., 17., 7., 13., 8., 9., 9., 10., 5., 13., 5.,
          6., 13., 4., 20., 6., 4., 2., 4., 4., 1., 17., 3., 12., 14.,
          2., 8., 16., 0., 15., 4., 2. ]
      - [ 12., 10., 3., 41., 3., 4., 5., 16., 8., 10., 18., 10., 10., 6.,
          6., 3., 5., 4., 17., 14., 15., 2., 12., 2., 5., 15., 6., 3.,
          6., 6., 4., 10., 9., 13., 4., 11., 7., 4., 2., 7., 17., 15.,
          3., 4., 6., 3., 16., 15., 6., 8., 2., 5., 3., 6., 13., 11., 0.,
          7., 2., 2., 1., 3., 3., 1. ]
      - [ 4., 3., 10., 9., 1., 6., 5., 11., 10., 19., 3., 1., 9., 14.,
          4., 12., 10., 5., 8., 7., 10., 11., 5., 13., 5., 3., 7., 3.,
          6., 10., 7., 8., 6., 12., 6., 14., 10., 8., 7., 7., 5., 12.,
          9., 18., 8., 11., 8., 17., 3., 6., 4., 11., 4., 3., 11., 9.,
          6., 8., 6., 3., 5., 8., 8., 8. ]
      - [ 13., 2., 21., 7., 1., 7., 4., 16., 0., 9., 7., 3., 11., 16.,
          3., 13., 17., 4., 16., 12., 9., 5., 1., 12., 8., 8., 3., 0.,
          8., 4., 10., 6., 7., 9., 5., 11., 10., 4., 5., 7., 4., 6., 10.,
          7., 9., 4., 5., 10., 2., 10., 13., 8., 5., 6., 14., 20., 7.,
          3., 11., 7., 11., 7., 4., 3. ]
      - [ 4., 16., 4., 11., 7., 6., 1., 16., 12., 7., 1., 16., 2., 9.,
          15., 3., 2., 2., 43., 7., 12., 3., 1., 6., 1., 6., 10., 35.,
          6., 2., 3., 2., 3., 15., 5., 8., 2., 11., 4., 4., 12., 17., 7.,
          8., 5., 9., 2., 2., 7., 5., 11., 15., 3., 4., 8., 1., 4., 3.,
          7., 5., 16., 7., 8., 11. ]
      - [ 4., 10., 6., 26., 8., 1., 1., 14., 3., 1., 7., 1., 12., 8., 3.,
          4., 11., 5., 11., 11., 13., 6., 15., 3., 3., 3., 3., 6., 12.,
          9., 4., 24., 10., 9., 9., 27., 6., 2., 2., 5., 2., 12., 7., 2.,
          15., 2., 15., 31., 7., 2., 6., 4., 9., 5., 10., 25., 1., 3.,
          12., 0., 2., 4., 2., 4. ]
      - [ 13., 6., 3., 8., 4., 8., 3., 16., 1., 7., 18., 7., 7., 13., 6.,
          7., 12., 2., 21., 8., 8., 12., 2., 2., 10., 7., 3., 0., 8.,
          17., 7., 9., 4., 12., 3., 9., 14., 9., 4., 4., 6., 24., 6., 5.,
          18., 3., 23., 7., 6., 2., 18., 9., 5., 3., 10., 1., 6., 7., 9.,
          4., 1., 3., 3., 7. ]
      - [ 19., 13., 1., 23., 3., 8., 2., 21., 2., 13., 12., 0., 6., 14.,
          1., 8., 5., 4., 25., 5., 11., 8., 7., 4., 11., 8., 9., 1., 11.,
          9., 3., 7., 11., 16., 4., 13., 8., 4., 1., 2., 0., 22., 4., 6.,
          17., 0., 21., 10., 3., 1., 14., 6., 2., 4., 19., 7., 7., 0.,
          6., 2., 5., 2., 6., 3. ]
      - [ 3., 5., 2., 1., 14., 6., 13., 11., 15., 3., 23., 15., 4., 8.,
          7., 7., 5., 14., 5., 6., 5., 7., 0., 5., 13., 8., 3., 6., 8.,
          7., 5., 1., 4., 8., 4., 3., 4., 26., 11., 4., 6., 16., 2., 17.,
          11., 15., 6., 2., 8., 4., 10., 8., 4., 4., 7., 8., 14., 2., 6.,
          14., 8., 8., 10., 11. ]
      - [ 20., 4., 13., 2., 6., 4., 18., 26., 9., 6., 5., 25., 3., 6.,
          13., 3., 1., 7., 20., 12., 4., 14., 3., 2., 8., 3., 17., 4.,
          8., 1., 4., 8., 3., 3., 5., 6., 8., 17., 15., 1., 3., 9., 5.,
          4., 6., 4., 5., 4., 11., 4., 6., 3., 10., 5., 3., 5., 19., 6.,
          7., 24., 2., 9., 6., 3. ]
      - [ 9., 5., 6., 9., 10., 10., 10., 16., 19., 4., 16., 4., 5., 14.,
          13., 6., 7., 6., 9., 9., 13., 4., 8., 7., 9., 11., 7., 5., 6.,
          4., 8., 7., 6., 10., 8., 8., 4., 10., 11., 5., 7., 7., 5., 15.,
          9., 4., 14., 9., 4., 6., 7., 8., 3., 7., 1., 2., 2., 4., 15.,
          6., 3., 12., 10., 2. ]
      - [ 22., 6., 8., 8., 2., 6., 7., 19., 6., 3., 8., 9., 7., 5., 3.,
          4., 7., 0., 16., 16., 4., 14., 9., 2., 8., 5., 11., 19., 11.,
          12., 4., 12., 6., 15., 9., 10., 8., 8., 8., 8., 3., 4., 7.,
          14., 2., 0., 13., 4., 0., 7., 13., 18., 6., 7., 10., 3., 7.,
          3., 2., 16., 0., 5., 2., 9. ]
      - [ 7., 2., 4., 8., 6., 5., 10., 18., 1., 9., 8., 8., 14., 7., 5.,
          9., 10., 7., 17., 10., 3., 11., 5., 9., 6., 9., 5., 5., 4., 9.,
          5., 6., 6., 8., 6., 16., 15., 6., 5., 10., 6., 12., 10., 8.,
          12., 3., 16., 12., 7., 2., 13., 7., 5., 8., 6., 4., 3., 5., 6.,
          13., 5., 15., 6., 2. ]
      - [ 16., 4., 9., 36., 1., 0., 0., 16., 4., 0., 12., 5., 22., 6.,
          5., 1., 13., 5., 10., 15., 12., 7., 7., 5., 3., 2., 1., 13.,
          5., 5., 6., 4., 6., 6., 7., 35., 10., 4., 4., 4., 5., 11., 3.,
          6., 7., 1., 28., 25., 0., 2., 2., 4., 8., 10., 11., 21., 6.,
          4., 2., 4., 1., 5., 4., 4. ]
      - [ 16., 4., 8., 5., 3., 11., 9., 22., 6., 9., 7., 7., 4., 8., 10.,
          7., 8., 1., 10., 13., 7., 13., 0., 9., 2., 3., 5., 0., 5., 10.,
          6., 8., 5., 11., 3., 14., 9., 13., 11., 9., 4., 8., 4., 20.,
          10., 4., 12., 10., 9., 2., 10., 5., 5., 1., 8., 6., 12., 5.,
          6., 16., 3., 21., 7., 1. ]
      - [ 10., 3., 9., 18., 1., 14., 1., 22., 1., 14., 14., 0., 6., 8.,
          1., 13., 15., 1., 29., 14., 10., 1., 1., 9., 1., 1., 12., 1.,
          0., 16., 2., 14., 10., 3., 5., 17., 6., 0., 0., 2., 1., 62.,
          21., 5., 14., 0., 28., 4., 1., 1., 9., 6., 2., 1., 21., 3., 0.,
          0., 3., 0., 4., 0., 0., 9. ]
      - [ 8., 1., 2., 6., 8., 9., 24., 15., 17., 10., 7., 15., 1., 9.,
          17., 5., 4., 4., 17., 3., 5., 14., 4., 4., 4., 7., 9., 1., 9.,
          7., 2., 3., 4., 12., 1., 10., 8., 14., 13., 0., 4., 7., 5.,
          27., 9., 5., 5., 2., 4., 4., 3., 4., 1., 9., 4., 5., 18., 6.,
          5., 26., 12., 10., 8., 4. ]
      - [ 3., 7., 18., 23., 5., 1., 3., 22., 1., 1., 9., 0., 11., 5., 2.,
          1., 19., 3., 32., 5., 9., 1., 23., 2., 0., 0., 0., 58., 5., 6.,
          0., 8., 8., 0., 9., 21., 17., 0., 0., 11., 0., 9., 4., 0., 8.,
          1., 16., 9., 0., 0., 2., 0., 15., 20., 8., 18., 1., 5., 11.,
          0., 15., 0., 0., 9. ]
      - [ 15., 7., 4., 14., 10., 5., 2., 7., 6., 5., 11., 4., 6., 6., 4.,
          2., 2., 4., 10., 7., 10., 18., 12., 8., 11., 5., 5., 11., 6.,
          13., 3., 12., 5., 15., 3., 18., 5., 8., 7., 11., 1., 19., 3.,
          8., 23., 5., 13., 11., 11., 2., 7., 7., 8., 10., 5., 9., 7.,
          5., 6., 11., 1., 5., 5., 1. ]
      - [ 9., 9., 9., 15., 4., 7., 3., 15., 7., 9., 5., 5., 18., 3., 6.,
          9., 11., 6., 13., 6., 6., 18., 1., 7., 11., 5., 11., 4., 8.,
          5., 4., 5., 11., 8., 9., 21., 12., 7., 3., 4., 1., 12., 9.,
          12., 10., 4., 9., 9., 4., 5., 17., 6., 3., 5., 8., 13., 5., 5.,
          5., 5., 6., 5., 6., 7. ]
      - [ 12., 10., 9., 4., 16., 4., 9., 9., 4., 1., 13., 4., 4., 6., 6.,
          1., 8., 9., 4., 10., 13., 7., 5., 3., 4., 3., 7., 6., 11., 7.,
          16., 5., 7., 14., 11., 14., 7., 15., 12., 7., 7., 6., 2., 5.,
          20., 9., 8., 10., 8., 4., 8., 8., 6., 4., 3., 7., 11., 6., 6.,
          20., 0., 10., 11., 4. ]
      - [ 8., 2., 5., 0., 5., 4., 4., 14., 9., 7., 8., 6., 10., 5., 3.,
          7., 14., 2., 9., 10., 8., 13., 2., 5., 5., 6., 14., 3., 6., 5.,
          2., 6., 0., 30., 2., 10., 9., 9., 4., 8., 2., 5., 31., 8., 10.,
          7., 4., 9., 3., 10., 26., 9., 7., 6., 7., 19., 7., 4., 4., 11.,
          5., 6., 16., 5. ]
      - [ 3., 9., 17., 0., 9., 4., 6., 27., 1., 5., 4., 4., 16., 13., 1.,
          3., 7., 1., 29., 8., 12., 1., 18., 3., 2., 3., 1., 26., 3.,
          11., 10., 3., 8., 8., 4., 20., 19., 1., 0., 3., 0., 47., 2.,
          0., 8., 0., 29., 23., 1., 2., 4., 1., 8., 10., 8., 6., 2., 2.,
          15., 2., 1., 4., 1., 1. ]
      - [ 4., 6., 2., 2., 7., 3., 21., 9., 6., 7., 4., 12., 3., 13., 20.,
          7., 2., 17., 5., 1., 3., 10., 2., 6., 13., 5., 21., 1., 9., 5.,
          12., 3., 1., 11., 5., 4., 2., 8., 7., 5., 11., 5., 1., 33., 7.,
          8., 0., 2., 4., 11., 9., 5., 1., 10., 3., 6., 14., 15., 23.,
          10., 5., 15., 13., 5. ]
      - [ 7., 6., 8., 11., 5., 7., 6., 15., 5., 1., 14., 4., 6., 4., 2.,
          5., 5., 2., 25., 14., 18., 2., 11., 6., 1., 5., 5., 15., 9.,
          4., 8., 13., 2., 11., 3., 26., 13., 2., 2., 7., 9., 19., 5.,
          3., 16., 4., 26., 13., 4., 4., 5., 3., 18., 4., 7., 3., 3., 0.,
          8., 4., 0., 7., 4., 16. ]
      - [ 12., 8., 11., 5., 10., 9., 2., 19., 11., 10., 8., 12., 7., 7.,
          11., 5., 12., 4., 8., 6., 12., 22., 4., 4., 10., 6., 12., 0.,
          5., 8., 8., 12., 3., 9., 3., 10., 13., 2., 5., 5., 4., 5., 3.,
          4., 9., 11., 7., 4., 5., 6., 20., 8., 8., 0., 8., 8., 2., 7.,
          9., 8., 3., 8., 11., 12. ]
      - [ 11., 6., 8., 2., 5., 21., 3., 15., 8., 10., 7., 2., 7., 8., 5.,
          7., 8., 7., 10., 11., 10., 6., 10., 10., 5., 11., 12., 5., 1.,
          13., 6., 2., 6., 10., 4., 24., 5., 5., 4., 10., 4., 8., 9., 8.,
          7., 4., 7., 6., 11., 5., 16., 16., 10., 7., 15., 9., 6., 4.,
          3., 3., 5., 8., 4., 5. ]
      - [ 8., 9., 8., 12., 1., 4., 11., 22., 0., 3., 9., 2., 11., 6., 4.,
          1., 9., 3., 22., 5., 17., 8., 13., 10., 9., 3., 1., 2., 4.,
          12., 1., 1., 15., 7., 6., 12., 20., 5., 9., 12., 8., 7., 9.,
          4., 10., 2., 28., 13., 6., 0., 3., 7., 6., 20., 8., 16., 6.,
          7., 7., 6., 3., 4., 3., 0. ]
      - [ 12., 13., 4., 18., 7., 6., 6., 16., 4., 23., 13., 2., 5., 8.,
          0., 4., 8., 2., 21., 7., 11., 0., 7., 3., 1., 2., 1., 10., 3.,
          9., 5., 17., 8., 11., 12., 20., 17., 2., 1., 5., 3., 9., 6.,
          4., 8., 4., 25., 11., 5., 2., 13., 5., 22., 4., 8., 6., 2.,
          13., 2., 4., 13., 1., 2., 4. ]
      - [ 24., 10., 2., 20., 1., 3., 6., 11., 8., 5., 12., 1., 8., 6.,
          1., 6., 4., 6., 11., 13., 6., 16., 12., 5., 6., 11., 8., 10.,
          7., 13., 1., 7., 18., 16., 3., 5., 8., 12., 10., 4., 2., 10.,
          14., 17., 3., 1., 19., 4., 5., 8., 9., 12., 2., 4., 3., 4.,
          15., 5., 1., 8., 0., 5., 3., 10. ]
      - [ 8., 12., 9., 17., 1., 11., 3., 23., 5., 6., 8., 7., 5., 9., 3.,
          4., 8., 2., 23., 13., 20., 11., 7., 6., 1., 3., 6., 5., 14.,
          1., 13., 3., 3., 9., 8., 18., 5., 3., 1., 7., 1., 23., 4., 10.,
          11., 3., 21., 10., 4., 3., 9., 5., 11., 2., 17., 4., 3., 4.,
          6., 8., 0., 5., 5., 10. ]
      - [ 15., 3., 7., 5., 4., 8., 11., 32., 1., 1., 17., 4., 1., 8., 1.,
          3., 12., 1., 25., 9., 6., 1., 20., 2., 5., 5., 4., 29., 1., 7.,
          5., 9., 8., 5., 12., 17., 19., 6., 5., 5., 8., 25., 4., 5., 6.,
          0., 16., 11., 3., 5., 5., 4., 16., 7., 4., 10., 6., 1., 4., 5.,
          9., 1., 4., 2. ]
      - [ 9., 9., 7., 7., 6., 2., 9., 13., 9., 3., 9., 22., 7., 6., 11.,
          3., 5., 7., 9., 2., 9., 13., 0., 11., 1., 10., 6., 0., 12., 9.,
          1., 6., 1., 12., 3., 9., 10., 15., 13., 7., 8., 9., 5., 11.,
          19., 0., 7., 9., 8., 5., 8., 14., 3., 10., 6., 16., 21., 2.,
          3., 13., 2., 5., 11., 2. ]
      - [ 16., 7., 9., 7., 5., 4., 5., 11., 7., 6., 14., 9., 5., 3., 14.,
          7., 15., 4., 11., 14., 9., 5., 10., 13., 8., 6., 3., 4., 7.,
          5., 9., 5., 5., 4., 6., 10., 8., 13., 3., 5., 6., 7., 4., 10.,
          9., 4., 14., 13., 10., 3., 8., 5., 7., 9., 13., 21., 6., 0.,
          6., 7., 7., 6., 4., 10. ]
      - [ 7., 9., 9., 12., 32., 6., 14., 13., 5., 1., 3., 11., 8., 2.,
          12., 2., 1., 16., 14., 8., 6., 6., 10., 4., 4., 10., 2., 16.,
          12., 2., 4., 2., 3., 2., 3., 8., 7., 23., 17., 7., 2., 17., 1.,
          7., 7., 15., 6., 2., 5., 3., 0., 4., 4., 9., 1., 4., 14., 13.,
          5., 34., 0., 10., 4., 0. ]
      - [ 18., 3., 3., 5., 8., 8., 14., 6., 7., 11., 1., 13., 7., 6., 7.,
          8., 7., 5., 6., 10., 3., 7., 2., 3., 10., 5., 14., 1., 3., 6.,
          3., 4., 5., 13., 4., 4., 2., 13., 14., 7., 25., 9., 7., 13.,
          8., 7., 4., 4., 9., 7., 14., 19., 1., 4., 23., 2., 12., 3., 7.,
          7., 10., 13., 10., 6. ]
      - [ 10., 5., 16., 2., 12., 8., 9., 8., 13., 12., 8., 14., 10., 3.,
          8., 3., 3., 20., 7., 17., 3., 7., 1., 7., 12., 9., 10., 0., 8.,
          4., 4., 7., 2., 17., 4., 2., 2., 12., 11., 9., 14., 3., 1.,
          13., 1., 10., 3., 7., 4., 4., 11., 12., 3., 5., 6., 6., 12.,
          4., 7., 16., 5., 18., 10., 6. ]
      - [ 5., 3., 6., 2., 15., 3., 18., 15., 4., 8., 7., 14., 8., 8.,
          11., 10., 3., 5., 10., 5., 13., 5., 2., 3., 12., 4., 2., 1.,
          7., 9., 12., 8., 15., 6., 6., 6., 8., 16., 13., 3., 7., 4., 4.,
          17., 3., 12., 3., 5., 5., 8., 5., 8., 2., 8., 5., 3., 24., 16.,
          6., 11., 4., 17., 9., 3. ]
      - [ 6., 9., 5., 12., 1., 11., 7., 12., 3., 10., 14., 6., 6., 3.,
          4., 9., 12., 4., 19., 19., 4., 4., 4., 3., 10., 4., 6., 1., 4.,
          7., 6., 14., 8., 12., 6., 25., 10., 7., 3., 4., 5., 16., 6.,
          3., 30., 3., 14., 6., 9., 12., 6., 6., 14., 8., 7., 6., 3., 1.,
          6., 3., 4., 10., 2., 6. ]
      - [ 5., 6., 4., 9., 4., 4., 10., 13., 28., 1., 10., 10., 5., 4.,
          3., 3., 4., 3., 17., 18., 9., 13., 7., 11., 1., 7., 2., 8., 2.,
          8., 6., 6., 8., 4., 7., 14., 6., 14., 12., 8., 12., 11., 10.,
          11., 8., 3., 19., 6., 4., 3., 4., 11., 10., 7., 5., 4., 8., 8.,
          4., 14., 2., 8., 7., 7. ]
      - [ 3., 10., 13., 6., 2., 3., 0., 37., 0., 3., 8., 7., 8., 7., 1.,
          2., 20., 13., 20., 11., 9., 3., 18., 4., 5., 3., 8., 24., 7.,
          9., 5., 1., 2., 2., 4., 15., 7., 0., 4., 9., 1., 14., 2., 2.,
          6., 5., 35., 17., 1., 3., 6., 5., 14., 16., 4., 16., 2., 8.,
          17., 7., 1., 2., 2., 1. ]
      - [ 5., 2., 12., 6., 5., 12., 1., 34., 7., 6., 10., 1., 18., 12.,
          2., 9., 18., 4., 16., 14., 7., 7., 2., 5., 1., 3., 5., 5., 9.,
          12., 1., 8., 7., 10., 4., 18., 18., 2., 2., 15., 6., 17., 13.,
          5., 11., 1., 7., 13., 5., 3., 10., 8., 3., 4., 12., 11., 4.,
          6., 9., 0., 4., 6., 0., 7. ]
      - [ 4., 3., 13., 5., 5., 12., 1., 19., 0., 10., 6., 3., 15., 10.,
          3., 10., 11., 11., 16., 13., 5., 4., 6., 11., 3., 3., 8., 6.,
          6., 9., 6., 4., 15., 7., 7., 25., 10., 7., 1., 8., 5., 18., 1.,
          3., 14., 7., 16., 13., 3., 1., 8., 6., 14., 5., 8., 16., 4.,
          1., 5., 4., 7., 6., 10., 4. ]
      - [ 7., 4., 11., 4., 1., 9., 8., 19., 9., 13., 9., 3., 12., 4.,
          10., 9., 12., 6., 9., 4., 12., 7., 3., 11., 3., 5., 12., 1.,
          7., 6., 14., 14., 3., 14., 7., 7., 5., 6., 9., 12., 2., 1.,
          15., 8., 15., 5., 6., 8., 5., 5., 7., 7., 15., 5., 13., 13.,
          7., 5., 8., 4., 1., 8., 12., 4. ]
      - [ 6., 5., 10., 23., 10., 4., 3., 24., 2., 8., 8., 9., 7., 7., 8.,
          10., 9., 0., 23., 14., 6., 9., 9., 7., 3., 4., 5., 11., 6., 2.,
          8., 10., 5., 3., 6., 21., 5., 9., 0., 10., 2., 4., 4., 4., 18.,
          1., 9., 22., 8., 3., 12., 9., 30., 4., 6., 3., 2., 3., 4., 3.,
          1., 3., 5., 11. ]
      - [ 10., 9., 14., 8., 2., 4., 3., 27., 0., 7., 9., 2., 1., 3., 1.,
          3., 13., 3., 13., 16., 11., 0., 10., 5., 1., 5., 5., 59., 1.,
          5., 6., 10., 7., 8., 4., 24., 10., 2., 4., 0., 0., 16., 18.,
          5., 8., 2., 16., 22., 2., 5., 8., 9., 5., 7., 17., 7., 6., 3.,
          5., 1., 5., 3., 2., 3. ]
      - [ 6., 14., 5., 2., 3., 6., 2., 15., 5., 5., 7., 8., 16., 17.,
          11., 9., 8., 7., 17., 12., 14., 3., 8., 6., 3., 6., 9., 11.,
          8., 12., 6., 5., 4., 14., 6., 20., 9., 2., 5., 5., 4., 31., 4.,
          3., 2., 12., 13., 23., 6., 3., 3., 3., 11., 12., 3., 9., 2.,
          4., 4., 3., 3., 2., 0., 9. ]
      - [ 9., 18., 10., 37., 7., 4., 4., 8., 4., 17., 2., 2., 14., 13.,
          2., 5., 6., 9., 12., 5., 2., 9., 4., 6., 8., 2., 7., 10., 8.,
          11., 7., 6., 19., 6., 11., 7., 16., 4., 3., 8., 3., 4., 7.,
          11., 6., 7., 2., 4., 6., 8., 8., 6., 3., 10., 14., 3., 5., 8.,
          8., 11., 9., 6., 2., 7. ]
      - [ 7., 8., 10., 7., 9., 7., 1., 18., 4., 13., 12., 3., 12., 7.,
          0., 6., 14., 1., 21., 12., 9., 4., 7., 2., 8., 6., 7., 2., 5.,
          16., 11., 18., 7., 6., 5., 33., 16., 1., 4., 9., 2., 22., 10.,
          5., 10., 4., 15., 12., 4., 6., 3., 1., 4., 7., 9., 5., 0., 1.,
          10., 4., 2., 2., 3., 11. ]
      - [ 5., 5., 4., 3., 19., 6., 28., 16., 10., 6., 4., 8., 3., 7.,
          16., 2., 3., 13., 7., 6., 6., 9., 2., 10., 11., 8., 11., 1.,
          8., 2., 7., 2., 1., 1., 2., 6., 1., 23., 9., 6., 9., 9., 2.,
          12., 9., 15., 6., 6., 8., 2., 3., 7., 4., 10., 4., 6., 20., 3.,
          6., 22., 3., 14., 11., 12. ]
      - [ 4., 5., 6., 3., 11., 8., 6., 9., 13., 11., 17., 11., 6., 7.,
          5., 7., 2., 6., 13., 16., 5., 8., 9., 5., 6., 15., 5., 6., 5.,
          7., 8., 12., 1., 2., 9., 13., 5., 9., 11., 12., 8., 7., 5., 8.,
          10., 3., 14., 9., 7., 7., 6., 12., 10., 10., 3., 9., 6., 3.,
          5., 12., 3., 10., 5., 9. ]
      - [ 6., 2., 18., 3., 2., 13., 1., 10., 6., 7., 9., 8., 7., 11., 4.,
          2., 13., 4., 10., 9., 18., 6., 9., 9., 3., 7., 7., 9., 4., 7.,
          14., 7., 3., 7., 14., 9., 8., 12., 4., 12., 5., 4., 5., 4., 6.,
          1., 3., 15., 8., 4., 14., 6., 22., 9., 6., 15., 9., 20., 12.,
          3., 3., 4., 6., 2. ]
      - [ 17., 9., 8., 3., 11., 2., 15., 8., 17., 2., 9., 6., 8., 3.,
          10., 6., 3., 11., 3., 5., 7., 10., 9., 12., 4., 2., 10., 12.,
          8., 7., 5., 5., 2., 7., 5., 4., 4., 14., 20., 12., 3., 4., 7.,
          7., 13., 6., 4., 6., 11., 4., 5., 9., 5., 23., 9., 12., 10.,
          5., 5., 15., 4., 7., 7., 4. ]
      - [ 13., 6., 4., 0., 6., 7., 19., 2., 9., 12., 10., 18., 2., 2.,
          7., 3., 10., 7., 8., 8., 2., 19., 4., 7., 2., 11., 10., 1., 3.,
          6., 0., 3., 4., 7., 4., 3., 2., 31., 17., 3., 8., 2., 5., 9.,
          8., 9., 8., 5., 10., 6., 17., 12., 4., 14., 3., 6., 26., 3.,
          4., 17., 9., 10., 11., 2. ]
      - [ 10., 4., 6., 3., 11., 8., 10., 6., 5., 9., 5., 13., 8., 7., 2.,
          6., 4., 9., 3., 15., 6., 11., 1., 16., 9., 13., 6., 2., 5.,
          14., 3., 4., 2., 15., 7., 4., 6., 8., 11., 6., 6., 4., 7., 16.,
          11., 7., 2., 10., 9., 10., 12., 9., 3., 8., 3., 4., 12., 3.,
          8., 23., 7., 10., 14., 9. ]
      - [ 7., 3., 15., 4., 4., 12., 7., 6., 1., 7., 8., 2., 11., 11., 2.,
          4., 13., 5., 9., 17., 12., 4., 16., 1., 6., 8., 5., 10., 13.,
          7., 10., 17., 13., 6., 3., 13., 12., 1., 5., 6., 0., 6., 9.,
          6., 21., 5., 12., 11., 2., 5., 7., 14., 18., 8., 8., 13., 1.,
          9., 10., 5., 4., 4., 3., 3. ]
      - [ 3., 6., 15., 7., 10., 2., 11., 6., 4., 1., 4., 18., 3., 2.,
          17., 1., 2., 6., 4., 10., 1., 7., 10., 14., 2., 3., 8., 59.,
          4., 1., 5., 8., 4., 7., 6., 8., 2., 9., 8., 3., 13., 1., 8.,
          10., 4., 5., 10., 3., 10., 6., 10., 8., 14., 21., 6., 11., 6.,
          6., 6., 10., 7., 9., 6., 9. ]
      - [ 5., 13., 13., 16., 1., 15., 1., 14., 7., 9., 8., 2., 2., 20.,
          0., 11., 18., 0., 10., 15., 19., 3., 7., 7., 4., 9., 3., 0.,
          6., 8., 3., 17., 9., 13., 6., 26., 6., 2., 2., 11., 1., 14.,
          16., 6., 2., 2., 10., 9., 10., 10., 5., 7., 8., 3., 9., 19.,
          1., 2., 6., 2., 5., 1., 8., 3. ]
      - [ 8., 2., 3., 2., 7., 2., 10., 3., 16., 6., 11., 10., 0., 11.,
          1., 7., 1., 11., 6., 10., 5., 22., 10., 20., 8., 11., 6., 8.,
          5., 6., 6., 5., 3., 12., 2., 7., 3., 10., 10., 9., 8., 2., 9.,
          8., 9., 9., 3., 9., 6., 8., 11., 13., 21., 8., 3., 3., 7., 1.,
          8., 15., 13., 7., 11., 13. ]
      - [ 6., 5., 10., 3., 17., 4., 14., 17., 4., 3., 3., 7., 5., 9.,
          16., 3., 7., 10., 13., 8., 5., 11., 5., 8., 1., 9., 6., 9.,
          12., 5., 12., 5., 6., 6., 4., 7., 1., 7., 8., 7., 6., 14., 5.,
          7., 5., 17., 10., 12., 4., 6., 4., 4., 10., 11., 4., 20., 9.,
          4., 12., 5., 2., 13., 16., 2. ]
      - [ 6., 8., 4., 6., 10., 6., 2., 17., 8., 11., 12., 10., 5., 5.,
          8., 2., 11., 4., 9., 6., 13., 13., 9., 10., 3., 6., 4., 3., 7.,
          8., 9., 4., 5., 17., 4., 8., 13., 8., 7., 10., 3., 2., 7., 13.,
          15., 1., 9., 13., 7., 8., 16., 16., 4., 5., 4., 7., 5., 10.,
          12., 6., 5., 3., 13., 5. ]
      - [ 11., 16., 4., 3., 7., 8., 7., 15., 8., 7., 7., 4., 3., 12., 2.,
          10., 12., 7., 9., 8., 8., 7., 4., 5., 10., 5., 5., 3., 8., 13.,
          4., 9., 17., 20., 9., 7., 13., 4., 4., 6., 4., 13., 13., 7.,
          9., 6., 7., 3., 6., 4., 12., 6., 5., 3., 20., 11., 6., 6., 10.,
          7., 5., 3., 2., 11. ]
      - [ 4., 3., 19., 7., 4., 18., 2., 13., 12., 8., 13., 4., 11., 10.,
          5., 5., 6., 4., 14., 14., 4., 11., 11., 2., 9., 5., 11., 4.,
          7., 4., 4., 11., 4., 13., 7., 8., 5., 11., 0., 3., 5., 8., 5.,
          9., 6., 5., 11., 9., 7., 7., 18., 5., 15., 9., 10., 5., 12.,
          13., 3., 7., 1., 3., 10., 7. ]
      - [ 4., 2., 7., 22., 5., 4., 1., 22., 0., 3., 15., 0., 7., 7., 1.,
          4., 7., 6., 21., 11., 13., 7., 9., 3., 0., 5., 1., 68., 10.,
          6., 1., 4., 3., 0., 2., 10., 10., 5., 1., 16., 3., 11., 4., 1.,
          13., 1., 27., 22., 6., 1., 14., 6., 15., 8., 10., 12., 2., 5.,
          3., 2., 3., 1., 5., 2. ]
      - [ 5., 12., 5., 5., 7., 2., 6., 31., 2., 0., 6., 4., 7., 10., 4.,
          3., 12., 1., 32., 4., 12., 0., 8., 1., 2., 7., 0., 17., 4., 0.,
          1., 6., 1., 4., 1., 22., 17., 1., 1., 0., 2., 20., 1., 4., 12.,
          3., 15., 18., 3., 0., 0., 1., 5., 3., 2., 7., 3., 10., 15., 1.,
          1., 0., 1., 2. ]
      - [ 23., 4., 8., 3., 4., 4., 7., 13., 6., 2., 0., 13., 9., 2., 7.,
          4., 4., 8., 9., 9., 10., 30., 7., 12., 6., 10., 4., 4., 7., 4.,
          7., 6., 4., 5., 4., 6., 8., 14., 8., 9., 3., 4., 3., 8., 5.,
          8., 7., 8., 11., 10., 7., 8., 1., 18., 2., 16., 9., 6., 11.,
          24., 3., 9., 5., 10. ]
      - [ 4., 9., 3., 11., 5., 17., 2., 8., 12., 16., 15., 5., 11., 2.,
          2., 8., 4., 9., 17., 10., 10., 7., 10., 4., 6., 5., 10., 0.,
          3., 5., 2., 18., 9., 13., 4., 10., 8., 10., 5., 3., 6., 28.,
          8., 3., 9., 1., 8., 11., 4., 2., 13., 8., 6., 5., 20., 8., 8.,
          5., 14., 3., 5., 3., 2., 8. ]
      - [ 19., 10., 3., 5., 4., 8., 2., 20., 9., 10., 14., 4., 10., 6.,
          5., 3., 9., 3., 12., 14., 7., 4., 13., 9., 8., 5., 6., 21., 7.,
          9., 3., 10., 2., 8., 4., 6., 8., 7., 2., 6., 5., 26., 4., 4.,
          15., 1., 35., 9., 5., 7., 10., 8., 6., 11., 6., 12., 2., 2.,
          4., 2., 1., 7., 1., 2. ]
      - [ 9., 4., 4., 9., 0., 11., 2., 29., 2., 18., 12., 0., 6., 7., 0.,
          7., 4., 0., 42., 19., 7., 1., 8., 5., 8., 3., 6., 8., 1., 4.,
          2., 8., 7., 12., 6., 22., 15., 2., 2., 6., 1., 39., 11., 6.,
          7., 0., 20., 12., 2., 1., 7., 11., 9., 2., 24., 9., 1., 0., 3.,
          0., 9., 1., 1., 6. ]
      - [ 4., 9., 10., 7., 11., 3., 9., 17., 9., 4., 4., 2., 6., 8., 14.,
          6., 3., 4., 11., 9., 19., 18., 9., 7., 9., 11., 1., 8., 9., 8.,
          7., 6., 7., 4., 2., 8., 2., 9., 11., 11., 7., 12., 3., 5., 5.,
          10., 8., 13., 5., 7., 3., 3., 8., 10., 2., 11., 11., 10., 9.,
          10., 2., 13., 11., 6. ]
      - [ 10., 8., 5., 11., 10., 9., 14., 4., 20., 6., 8., 5., 3., 7.,
          17., 9., 4., 5., 4., 11., 7., 16., 0., 8., 10., 9., 3., 1.,
          11., 3., 6., 2., 5., 14., 3., 6., 0., 22., 11., 7., 3., 2., 7.,
          21., 9., 3., 2., 4., 4., 7., 5., 15., 1., 4., 2., 5., 18., 1.,
          8., 13., 1., 26., 18., 7. ]
      - [ 16., 7., 9., 8., 7., 9., 8., 9., 5., 12., 4., 4., 3., 5., 6.,
          6., 4., 5., 10., 10., 9., 9., 3., 4., 4., 11., 13., 0., 7.,
          12., 13., 8., 7., 10., 4., 6., 16., 7., 11., 6., 8., 6., 7.,
          8., 11., 2., 12., 8., 5., 8., 8., 16., 3., 7., 5., 9., 14., 5.,
          8., 19., 4., 3., 8., 9. ]
      - [ 7., 12., 13., 5., 10., 15., 4., 11., 5., 6., 5., 1., 9., 17.,
          3., 6., 6., 11., 12., 11., 15., 3., 4., 14., 5., 9., 8., 4.,
          4., 16., 6., 14., 8., 12., 7., 9., 8., 4., 7., 12., 2., 6., 7.,
          1., 9., 12., 8., 9., 6., 6., 9., 6., 7., 6., 6., 14., 8., 4.,
          13., 3., 3., 4., 8., 5. ]
      - [ 18., 10., 8., 11., 2., 7., 3., 17., 2., 6., 8., 6., 11., 8.,
          3., 5., 8., 7., 28., 11., 13., 15., 2., 9., 3., 9., 11., 2.,
          8., 11., 1., 8., 14., 8., 3., 12., 10., 7., 0., 12., 9., 13.,
          12., 10., 9., 1., 16., 9., 3., 3., 11., 3., 5., 9., 12., 4.,
          5., 0., 6., 8., 2., 6., 2., 5. ]
      - [ 12., 1., 8., 7., 4., 6., 8., 14., 1., 11., 8., 9., 7., 8., 4.,
          14., 12., 4., 22., 15., 6., 11., 6., 3., 7., 4., 6., 4., 9.,
          18., 8., 7., 11., 8., 14., 23., 7., 4., 5., 10., 2., 21., 12.,
          0., 9., 0., 11., 11., 2., 2., 3., 12., 8., 10., 6., 5., 8., 4.,
          7., 7., 4., 3., 3., 4. ]
      - [ 4., 40., 2., 56., 6., 0., 8., 30., 4., 11., 13., 4., 4., 6.,
          3., 9., 4., 0., 16., 7., 13., 3., 4., 8., 6., 4., 2., 10., 15.,
          2., 8., 8., 1., 2., 18., 30., 5., 19., 0., 4., 4., 8., 2., 6.,
          2., 5., 11., 3., 0., 2., 7., 4., 1., 3., 7., 12., 6., 4., 6.,
          2., 4., 2., 1., 9. ]
      - [ 7., 5., 2., 13., 4., 4., 2., 21., 1., 14., 2., 2., 9., 11., 2.,
          7., 15., 7., 21., 17., 13., 12., 3., 5., 4., 8., 3., 10., 8.,
          11., 3., 13., 7., 8., 5., 19., 14., 0., 0., 11., 1., 15., 7.,
          9., 11., 0., 21., 14., 2., 2., 12., 5., 6., 7., 12., 17., 3.,
          2., 8., 5., 7., 1., 0., 10. ]
      - [ 5., 8., 11., 8., 2., 8., 2., 18., 4., 32., 8., 1., 10., 5., 0.,
          13., 15., 4., 18., 8., 12., 1., 0., 4., 9., 6., 6., 0., 3.,
          10., 8., 7., 8., 11., 7., 12., 13., 6., 0., 9., 2., 26., 10.,
          8., 7., 3., 17., 14., 2., 2., 12., 5., 3., 5., 20., 9., 4., 6.,
          8., 3., 2., 2., 1., 17. ]
      - [ 6., 10., 19., 8., 3., 12., 4., 18., 3., 2., 9., 1., 2., 7., 3.,
          7., 7., 3., 26., 10., 20., 6., 5., 9., 10., 7., 4., 5., 6.,
          11., 4., 2., 4., 8., 4., 13., 11., 6., 4., 12., 2., 8., 5., 8.,
          10., 0., 20., 12., 3., 6., 12., 21., 6., 7., 12., 9., 8., 1.,
          10., 7., 2., 4., 11., 5. ]
      - [ 10., 0., 0., 2., 1., 3., 3., 3., 23., 1., 1., 19., 1., 5., 0.,
          0., 2., 0., 5., 10., 1., 69., 0., 1., 0., 1., 14., 4., 0., 2.,
          2., 0., 0., 116., 1., 2., 0., 1., 1., 0., 0., 1., 37., 15., 1.,
          0., 0., 1., 3., 18., 72., 16., 0., 5., 2., 0., 1., 0., 0., 7.,
          2., 5., 7., 3. ]
      - [ 12., 7., 6., 1., 6., 3., 16., 19., 7., 1., 5., 14., 17., 9.,
          20., 2., 5., 9., 9., 13., 5., 7., 16., 1., 7., 1., 7., 12., 8.,
          5., 9., 2., 13., 5., 3., 8., 6., 8., 7., 3., 10., 5., 4., 11.,
          5., 7., 6., 9., 2., 6., 3., 8., 9., 10., 4., 5., 8., 10., 3.,
          4., 31., 12., 6., 8. ]
      - [ 12., 5., 13., 6., 18., 6., 12., 0., 14., 6., 12., 16., 4., 5.,
          19., 3., 1., 10., 3., 9., 1., 5., 17., 8., 6., 9., 7., 4., 11.,
          7., 8., 9., 5., 10., 10., 2., 3., 6., 9., 7., 13., 3., 3., 11.,
          7., 7., 0., 3., 8., 8., 3., 15., 5., 12., 3., 6., 11., 9., 7.,
          14., 3., 10., 10., 11. ]
      - [ 10., 6., 5., 1., 3., 7., 4., 21., 3., 8., 11., 8., 2., 6., 9.,
          12., 8., 7., 18., 24., 4., 6., 7., 8., 3., 4., 20., 1., 7., 4.,
          4., 10., 3., 18., 3., 9., 9., 9., 9., 3., 1., 14., 12., 9., 8.,
          5., 7., 9., 9., 6., 7., 6., 8., 4., 21., 9., 10., 11., 6., 9.,
          6., 2., 2., 5. ]
      - [ 2., 8., 10., 12., 3., 5., 1., 33., 0., 2., 13., 0., 21., 5.,
          0., 1., 10., 11., 18., 10., 16., 0., 18., 2., 1., 2., 5., 26.,
          7., 9., 9., 4., 6., 8., 3., 18., 22., 1., 1., 3., 3., 35., 8.,
          1., 3., 4., 31., 22., 4., 4., 1., 1., 18., 10., 1., 8., 1., 8.,
          5., 2., 0., 0., 0., 4. ]
      - [ 3., 6., 6., 18., 2., 6., 2., 12., 10., 6., 6., 2., 6., 12., 4.,
          8., 5., 3., 17., 12., 4., 6., 13., 5., 4., 3., 6., 8., 5., 13.,
          9., 13., 6., 6., 4., 28., 4., 5., 6., 3., 3., 25., 9., 4., 11.,
          8., 7., 10., 9., 7., 11., 10., 12., 11., 13., 17., 1., 5., 8.,
          3., 3., 2., 7., 7. ]
      - [ 10., 2., 6., 7., 3., 2., 9., 20., 3., 6., 10., 11., 10., 6.,
          8., 10., 7., 7., 10., 4., 5., 9., 11., 5., 10., 7., 7., 8., 6.,
          8., 3., 4., 2., 10., 3., 8., 9., 3., 13., 12., 8., 6., 10., 7.,
          9., 7., 18., 6., 7., 10., 9., 12., 8., 19., 3., 5., 7., 6., 8.,
          18., 1., 16., 5., 1. ]
      - [ 9., 3., 13., 8., 4., 13., 5., 22., 5., 7., 13., 2., 13., 9.,
          3., 10., 12., 5., 22., 17., 6., 7., 10., 5., 5., 8., 6., 1.,
          14., 10., 7., 9., 8., 5., 7., 8., 12., 3., 0., 11., 7., 19.,
          10., 3., 8., 1., 17., 5., 7., 3., 8., 14., 5., 6., 2., 15., 4.,
          4., 5., 3., 6., 4., 2., 5. ]
      - [ 8., 3., 9., 6., 12., 6., 8., 19., 6., 7., 12., 4., 8., 5., 0.,
          2., 12., 2., 23., 12., 12., 9., 6., 7., 10., 3., 5., 1., 1.,
          6., 8., 4., 8., 18., 4., 9., 16., 8., 9., 7., 9., 21., 2., 10.,
          8., 3., 11., 13., 8., 5., 6., 8., 2., 11., 3., 8., 15., 9., 2.,
          9., 3., 6., 7., 6. ]
      - [ 7., 5., 17., 6., 14., 6., 7., 23., 9., 6., 6., 7., 4., 5., 3.,
          5., 5., 10., 24., 11., 23., 8., 9., 3., 3., 3., 3., 0., 15.,
          1., 7., 4., 3., 13., 4., 8., 8., 3., 4., 5., 8., 3., 8., 4.,
          22., 1., 2., 13., 7., 5., 8., 4., 7., 7., 9., 20., 8., 7., 14.,
          10., 5., 7., 4., 10. ]
      - [ 18., 3., 12., 9., 3., 7., 0., 22., 1., 9., 9., 0., 7., 1., 1.,
          8., 5., 1., 30., 16., 7., 2., 8., 2., 12., 3., 2., 5., 7., 17.,
          9., 11., 4., 11., 8., 19., 13., 2., 0., 8., 2., 25., 10., 1.,
          11., 1., 27., 11., 7., 5., 4., 10., 20., 7., 6., 14., 3., 6.,
          9., 2., 3., 0., 1., 3. ]
      - [ 8., 9., 4., 7., 7., 1., 16., 16., 8., 6., 11., 3., 6., 5., 14.,
          2., 11., 6., 11., 14., 12., 7., 18., 6., 8., 9., 11., 2., 9.,
          4., 1., 8., 7., 8., 8., 6., 6., 11., 6., 7., 6., 5., 3., 7.,
          17., 3., 5., 12., 7., 7., 11., 8., 6., 7., 4., 8., 7., 6., 11.,
          12., 3., 14., 7., 5. ]
      - [ 9., 6., 4., 7., 9., 12., 6., 16., 8., 4., 25., 7., 5., 6., 7.,
          7., 14., 5., 16., 16., 11., 5., 1., 13., 9., 6., 14., 1., 3.,
          4., 9., 7., 3., 9., 5., 17., 8., 16., 5., 6., 11., 18., 2.,
          13., 16., 3., 15., 4., 6., 2., 5., 5., 3., 4., 4., 6., 9., 3.,
          4., 8., 4., 6., 2., 6. ]
      - [ 9., 3., 18., 4., 12., 5., 12., 3., 11., 7., 6., 9., 5., 9., 6.,
          5., 3., 9., 10., 16., 7., 12., 3., 7., 7., 5., 4., 1., 10., 2.,
          14., 6., 0., 16., 1., 4., 4., 15., 9., 8., 10., 12., 11., 14.,
          12., 6., 5., 6., 8., 4., 19., 7., 10., 5., 4., 5., 10., 5., 4.,
          13., 3., 12., 8., 10. ]
      - [ 8., 1., 7., 7., 5., 6., 7., 16., 9., 4., 16., 11., 5., 7., 4.,
          6., 9., 4., 11., 8., 11., 24., 1., 4., 7., 5., 7., 4., 6., 5.,
          3., 10., 7., 7., 3., 22., 9., 20., 4., 4., 6., 12., 5., 7.,
          13., 5., 13., 11., 2., 4., 9., 15., 11., 2., 13., 5., 10., 3.,
          3., 10., 1., 10., 7., 9. ]
      - [ 13., 8., 9., 37., 0., 4., 4., 22., 4., 11., 1., 5., 8., 6., 5.,
          9., 10., 6., 13., 14., 17., 7., 3., 13., 2., 5., 3., 5., 8.,
          9., 5., 5., 5., 15., 6., 24., 6., 3., 2., 6., 1., 23., 10., 6.,
          10., 1., 23., 10., 1., 0., 17., 9., 3., 8., 10., 12., 3., 2.,
          2., 4., 1., 2., 3., 1. ]
      - [ 11., 6., 10., 1., 6., 11., 8., 12., 7., 4., 5., 5., 9., 5.,
          10., 3., 9., 13., 9., 1., 7., 5., 16., 9., 18., 6., 23., 5.,
          7., 6., 10., 4., 7., 8., 9., 6., 9., 8., 4., 3., 2., 5., 1.,
          9., 10., 13., 4., 10., 6., 13., 8., 5., 4., 16., 2., 14., 8.,
          6., 13., 0., 9., 9., 12., 6. ]
      - [ 8., 5., 3., 5., 6., 7., 8., 6., 13., 4., 8., 20., 2., 8., 13.,
          2., 3., 4., 8., 5., 9., 22., 7., 5., 3., 8., 2., 6., 2., 7.,
          5., 0., 6., 18., 2., 6., 3., 22., 13., 8., 8., 8., 6., 22., 5.,
          4., 5., 4., 9., 11., 10., 11., 10., 3., 6., 5., 15., 4., 2.,
          33., 1., 9., 2., 15. ]
      - [ 6., 2., 13., 5., 7., 5., 41., 17., 14., 1., 0., 13., 3., 5.,
          17., 2., 3., 3., 18., 4., 1., 3., 2., 10., 8., 5., 5., 5., 6.,
          3., 3., 3., 2., 4., 4., 5., 5., 34., 13., 6., 3., 15., 1., 5.,
          6., 11., 4., 8., 4., 9., 9., 6., 3., 4., 11., 4., 24., 6., 7.,
          26., 2., 20., 6., 0. ]
      - [ 6., 3., 4., 2., 3., 11., 5., 19., 6., 3., 12., 7., 5., 8., 5.,
          10., 12., 9., 13., 13., 4., 12., 13., 13., 2., 11., 6., 7., 5.,
          18., 7., 2., 1., 7., 4., 16., 10., 3., 6., 4., 6., 14., 10.,
          5., 17., 5., 14., 7., 8., 5., 10., 8., 5., 15., 6., 6., 6., 7.,
          13., 8., 2., 5., 6., 5. ]
      - [ 16., 23., 7., 39., 10., 1., 6., 33., 1., 6., 10., 5., 9., 8.,
          3., 6., 7., 2., 22., 12., 11., 7., 3., 4., 7., 11., 1., 13.,
          5., 4., 1., 7., 6., 2., 7., 35., 7., 5., 3., 6., 2., 12., 3.,
          5., 6., 0., 8., 15., 1., 1., 4., 8., 6., 2., 12., 17., 5., 1.,
          5., 3., 4., 3., 0., 6. ]
      - [ 11., 12., 8., 8., 7., 3., 7., 11., 2., 2., 14., 10., 8., 4.,
          6., 10., 15., 6., 16., 9., 9., 5., 16., 7., 3., 3., 12., 18.,
          6., 7., 5., 4., 14., 10., 9., 11., 5., 7., 2., 5., 5., 6., 7.,
          1., 14., 6., 12., 27., 2., 4., 7., 5., 11., 16., 2., 6., 1.,
          7., 13., 5., 1., 8., 1., 6. ]
      - [ 4., 10., 4., 8., 8., 10., 12., 4., 6., 7., 6., 17., 4., 6., 5.,
          6., 7., 5., 2., 5., 6., 14., 4., 20., 7., 9., 6., 2., 6., 5.,
          9., 10., 8., 28., 1., 6., 3., 8., 18., 4., 6., 1., 1., 15.,
          17., 10., 0., 5., 6., 9., 21., 10., 1., 1., 12., 4., 11., 4.,
          10., 16., 7., 11., 7., 5. ]
      - [ 9., 4., 12., 17., 5., 2., 1., 24., 3., 4., 15., 1., 4., 2., 3.,
          4., 6., 5., 21., 10., 17., 10., 2., 5., 2., 6., 8., 2., 17.,
          2., 5., 5., 5., 5., 6., 31., 5., 10., 4., 5., 6., 21., 1., 12.,
          13., 3., 32., 11., 6., 7., 5., 3., 12., 5., 4., 13., 6., 4.,
          3., 3., 8., 10., 4., 4. ]
      - [ 9., 5., 11., 5., 16., 3., 20., 12., 5., 3., 7., 3., 5., 10.,
          6., 4., 5., 6., 18., 4., 9., 5., 13., 4., 8., 14., 2., 7., 7.,
          6., 8., 4., 12., 6., 4., 7., 7., 8., 7., 12., 5., 17., 1., 2.,
          8., 12., 12., 5., 3., 4., 8., 6., 2., 11., 9., 16., 13., 18.,
          4., 12., 0., 11., 9., 5. ]
      - [ 6., 4., 6., 25., 11., 6., 6., 25., 7., 11., 8., 4., 8., 10.,
          3., 11., 2., 9., 15., 14., 12., 7., 1., 3., 7., 4., 1., 1., 9.,
          5., 9., 8., 4., 7., 5., 25., 8., 3., 7., 4., 3., 23., 2., 12.,
          8., 4., 15., 5., 1., 3., 9., 9., 3., 3., 22., 4., 7., 3., 4.,
          11., 1., 13., 2., 12. ]
      - [ 3., 4., 3., 2., 3., 2., 23., 23., 13., 4., 7., 47., 2., 2.,
          16., 2., 2., 1., 20., 2., 10., 11., 6., 5., 3., 3., 8., 2.,
          11., 2., 3., 3., 0., 5., 1., 13., 6., 31., 16., 3., 4., 16.,
          2., 11., 7., 3., 11., 11., 6., 3., 5., 4., 3., 2., 2., 4., 16.,
          5., 4., 36., 2., 14., 5., 1. ]
      - [ 4., 9., 2., 7., 0., 1., 3., 38., 0., 10., 11., 1., 7., 4., 0.,
          2., 7., 3., 43., 7., 12., 3., 6., 2., 3., 3., 4., 5., 6., 8.,
          1., 9., 4., 7., 4., 25., 20., 1., 6., 5., 4., 50., 3., 4., 13.,
          1., 32., 15., 4., 0., 13., 8., 6., 10., 22., 6., 2., 2., 2.,
          3., 5., 1., 1., 0. ]
      - [ 6., 9., 6., 30., 4., 11., 3., 13., 5., 14., 27., 4., 8., 10.,
          1., 15., 10., 2., 13., 18., 8., 1., 8., 13., 2., 4., 4., 6.,
          8., 7., 4., 22., 10., 6., 3., 13., 10., 2., 1., 6., 2., 5., 4.,
          3., 8., 3., 12., 14., 1., 7., 14., 7., 13., 4., 9., 9., 2., 7.,
          3., 4., 8., 2., 4., 8. ]
      - [ 11., 4., 6., 3., 7., 6., 11., 2., 8., 1., 7., 8., 1., 5., 9.,
          9., 6., 16., 8., 5., 15., 23., 13., 9., 6., 6., 4., 5., 10.,
          1., 8., 4., 2., 11., 1., 5., 2., 10., 19., 5., 7., 4., 13., 9.,
          5., 7., 6., 11., 8., 8., 8., 13., 14., 10., 1., 5., 8., 3., 7.,
          15., 9., 15., 8., 14. ]
      - [ 8., 4., 8., 3., 10., 7., 7., 11., 6., 2., 5., 10., 6., 8., 10.,
          6., 5., 10., 8., 4., 7., 3., 15., 8., 13., 10., 4., 9., 6.,
          15., 6., 6., 1., 3., 3., 6., 4., 7., 12., 7., 2., 15., 4., 9.,
          12., 9., 14., 5., 7., 6., 4., 3., 10., 14., 4., 14., 11., 8.,
          5., 13., 10., 13., 14., 11. ]
      - [ 6., 12., 18., 0., 2., 0., 5., 24., 0., 5., 2., 10., 5., 2., 1.,
          0., 11., 9., 9., 5., 7., 11., 36., 7., 2., 6., 2., 27., 5., 7.,
          3., 2., 2., 1., 6., 15., 14., 4., 2., 9., 8., 12., 6., 0., 9.,
          2., 23., 12., 4., 2., 3., 9., 9., 36., 1., 18., 2., 18., 16.,
          7., 4., 2., 3., 0. ]
      - [ 7., 4., 6., 4., 9., 1., 9., 26., 2., 3., 6., 4., 7., 8., 7.,
          12., 6., 7., 15., 9., 12., 16., 0., 6., 3., 7., 9., 3., 6., 7.,
          7., 5., 0., 9., 2., 14., 5., 10., 6., 4., 1., 18., 16., 9.,
          18., 5., 8., 6., 1., 3., 21., 12., 4., 9., 6., 15., 8., 8.,
          13., 7., 7., 10., 6., 6. ]
      - [ 20., 6., 8., 13., 0., 10., 1., 13., 7., 23., 10., 0., 6., 9.,
          2., 10., 12., 5., 7., 9., 9., 5., 14., 10., 3., 1., 4., 0.,
          13., 14., 3., 6., 10., 10., 8., 17., 11., 3., 0., 6., 2., 17.,
          6., 10., 2., 0., 7., 4., 0., 4., 11., 14., 10., 8., 22., 20.,
          4., 2., 8., 3., 13., 3., 0., 12. ]
      - [ 6., 11., 6., 11., 0., 7., 2., 21., 1., 7., 11., 4., 11., 9.,
          6., 5., 10., 2., 24., 16., 18., 5., 7., 8., 10., 2., 9., 7.,
          6., 9., 4., 18., 8., 4., 2., 14., 13., 3., 7., 18., 7., 13.,
          6., 3., 11., 2., 14., 17., 6., 9., 4., 2., 12., 5., 6., 8., 1.,
          4., 8., 5., 10., 1., 2., 2. ]
      - [ 7., 10., 7., 11., 6., 12., 4., 3., 11., 8., 9., 12., 10., 3.,
          9., 10., 8., 11., 14., 9., 10., 6., 7., 12., 5., 8., 17., 2.,
          7., 4., 5., 6., 8., 9., 3., 8., 3., 6., 12., 9., 13., 6., 6.,
          5., 3., 5., 15., 3., 10., 15., 5., 4., 4., 8., 8., 6., 11., 9.,
          8., 5., 2., 9., 12., 7. ]
      - [ 19., 2., 11., 1., 7., 0., 16., 5., 6., 2., 7., 8., 7., 3., 8.,
          0., 9., 2., 1., 5., 0., 8., 16., 4., 7., 12., 5., 31., 4., 8.,
          3., 1., 8., 12., 2., 5., 6., 20., 19., 5., 3., 5., 6., 15.,
          10., 5., 5., 10., 1., 2., 1., 7., 17., 16., 2., 12., 18., 10.,
          4., 26., 15., 12., 2., 1. ]
      - [ 13., 4., 6., 12., 3., 0., 30., 23., 2., 2., 4., 6., 9., 4., 9.,
          2., 4., 6., 14., 10., 11., 4., 7., 5., 4., 4., 4., 15., 5., 6.,
          0., 4., 5., 12., 4., 10., 7., 11., 13., 6., 14., 5., 9., 6.,
          16., 4., 20., 10., 6., 2., 4., 6., 5., 22., 4., 4., 15., 12.,
          4., 17., 0., 8., 7., 0. ]
      - [ 3., 3., 9., 1., 7., 13., 5., 7., 13., 1., 9., 8., 7., 9., 5.,
          11., 3., 10., 2., 11., 8., 13., 0., 10., 6., 17., 7., 2., 5.,
          11., 15., 2., 4., 10., 4., 9., 7., 3., 12., 9., 10., 8., 7.,
          7., 9., 20., 2., 4., 11., 19., 5., 10., 3., 10., 2., 7., 6.,
          8., 12., 4., 5., 14., 21., 5. ]
      - [ 18., 9., 2., 7., 7., 7., 6., 9., 13., 2., 9., 9., 3., 7., 7.,
          9., 4., 12., 8., 11., 6., 19., 3., 9., 11., 7., 7., 8., 7., 2.,
          5., 2., 1., 8., 1., 6., 1., 20., 10., 5., 4., 3., 2., 18., 5.,
          3., 4., 7., 10., 9., 13., 11., 8., 13., 3., 6., 10., 5., 12.,
          22., 4., 14., 9., 8. ]
      - [ 23., 4., 13., 3., 6., 3., 4., 9., 6., 4., 9., 18., 12., 4., 6.,
          2., 7., 6., 23., 12., 6., 10., 6., 16., 2., 12., 10., 13., 2.,
          7., 2., 12., 8., 9., 3., 11., 8., 9., 1., 8., 3., 27., 8., 5.,
          14., 2., 14., 15., 8., 1., 5., 14., 5., 5., 4., 10., 9., 2.,
          4., 2., 3., 6., 0., 5. ]
      - [ 1., 4., 3., 11., 0., 2., 0., 21., 8., 11., 3., 3., 4., 10., 4.,
          3., 4., 1., 16., 3., 4., 54., 1., 0., 4., 3., 14., 0., 3., 3.,
          0., 8., 0., 48., 4., 7., 0., 3., 1., 8., 0., 0., 86., 6., 5.,
          0., 1., 2., 2., 16., 36., 21., 1., 3., 1., 4., 0., 1., 9., 2.,
          1., 4., 20., 2. ]
      - [ 2., 7., 14., 10., 8., 5., 1., 25., 4., 11., 6., 4., 4., 5., 8.,
          4., 14., 7., 25., 12., 8., 6., 15., 6., 10., 3., 0., 10., 9.,
          6., 20., 3., 0., 3., 8., 15., 12., 1., 3., 5., 5., 29., 9., 3.,
          6., 8., 14., 8., 2., 6., 5., 6., 5., 8., 7., 12., 4., 13., 8.,
          12., 0., 1., 8., 2. ]
      - [ 7., 6., 11., 13., 7., 2., 8., 16., 6., 2., 6., 8., 13., 4.,
          11., 2., 6., 5., 23., 10., 11., 16., 9., 1., 1., 4., 8., 9.,
          12., 4., 11., 5., 4., 12., 6., 16., 13., 6., 16., 7., 3., 12.,
          6., 2., 12., 6., 10., 14., 5., 9., 2., 9., 1., 10., 2., 10.,
          9., 10., 8., 10., 1., 1., 7., 4. ]
      - [ 6., 6., 13., 2., 14., 6., 12., 9., 6., 9., 3., 9., 8., 12., 5.,
          4., 9., 10., 11., 13., 9., 6., 5., 6., 6., 7., 14., 0., 8., 2.,
          11., 7., 2., 9., 4., 7., 7., 10., 9., 8., 12., 20., 5., 17.,
          9., 9., 7., 9., 5., 3., 8., 2., 6., 6., 6., 8., 11., 8., 9.,
          5., 4., 8., 9., 10. ]
      - [ 2., 2., 11., 8., 0., 9., 3., 26., 6., 25., 12., 1., 3., 9., 0.,
          14., 14., 3., 32., 12., 13., 3., 2., 6., 3., 3., 4., 1., 7.,
          17., 7., 5., 9., 5., 5., 26., 16., 0., 0., 6., 1., 29., 8., 3.,
          7., 0., 18., 11., 3., 5., 6., 5., 15., 6., 13., 15., 0., 5.,
          3., 2., 9., 1., 2., 3. ]
      - [ 6., 6., 8., 15., 5., 8., 4., 21., 1., 17., 12., 3., 10., 3.,
          3., 8., 9., 4., 13., 18., 8., 5., 5., 12., 10., 1., 2., 0., 6.,
          7., 2., 4., 5., 6., 8., 20., 9., 9., 1., 11., 4., 28., 5., 6.,
          7., 4., 21., 8., 12., 8., 6., 1., 10., 4., 22., 5., 2., 5.,
          12., 1., 7., 1., 1., 15. ]
      - [ 18., 5., 9., 2., 6., 7., 5., 10., 5., 10., 15., 10., 4., 3.,
          3., 5., 8., 6., 11., 10., 8., 14., 3., 13., 8., 10., 5., 4.,
          7., 10., 2., 3., 8., 18., 5., 8., 9., 11., 5., 4., 5., 10.,
          14., 14., 18., 3., 19., 8., 4., 5., 15., 5., 4., 5., 2., 11.,
          10., 4., 6., 16., 5., 6., 3., 1. ]
      - [ 7., 4., 7., 7., 3., 6., 13., 25., 1., 6., 6., 9., 9., 6., 3.,
          7., 11., 2., 15., 16., 7., 7., 6., 1., 5., 4., 3., 1., 0., 9.,
          3., 17., 7., 3., 8., 26., 5., 6., 4., 11., 8., 20., 4., 8.,
          11., 2., 20., 18., 7., 4., 1., 3., 8., 9., 10., 5., 13., 7.,
          5., 10., 4., 15., 5., 7. ]
      - [ 14., 16., 7., 33., 4., 4., 6., 18., 5., 6., 4., 4., 9., 13.,
          3., 1., 10., 3., 21., 6., 4., 10., 1., 6., 5., 5., 1., 10.,
          12., 8., 6., 20., 15., 14., 8., 10., 9., 4., 3., 11., 1., 10.,
          7., 9., 9., 2., 18., 7., 7., 7., 7., 8., 9., 8., 5., 4., 3.,
          6., 6., 0., 8., 0., 3., 7. ]
      - [ 3., 8., 12., 17., 8., 2., 6., 6., 3., 9., 13., 13., 8., 9.,
          21., 6., 7., 19., 13., 14., 7., 7., 6., 2., 7., 16., 12., 4.,
          9., 10., 13., 4., 4., 5., 7., 5., 3., 6., 1., 5., 5., 5., 5.,
          1., 25., 9., 7., 12., 2., 11., 2., 5., 8., 1., 6., 4., 1., 9.,
          17., 5., 12., 7., 5., 6. ]
      - [ 12., 7., 11., 13., 2., 7., 7., 26., 4., 13., 16., 10., 3., 6.,
          5., 4., 11., 4., 13., 18., 5., 19., 3., 2., 5., 4., 6., 27.,
          5., 3., 7., 3., 2., 7., 4., 14., 11., 10., 2., 7., 10., 15.,
          5., 2., 8., 3., 5., 7., 3., 6., 8., 6., 10., 6., 3., 8., 5.,
          4., 11., 8., 2., 10., 2., 15. ]
      - [ 15., 6., 10., 3., 7., 15., 7., 7., 12., 6., 13., 15., 6., 5.,
          14., 4., 1., 11., 6., 8., 5., 12., 3., 15., 13., 10., 6., 1.,
          9., 12., 9., 3., 6., 10., 6., 3., 3., 19., 10., 11., 8., 5.,
          2., 8., 13., 4., 5., 5., 2., 13., 5., 9., 2., 6., 7., 4., 14.,
          4., 7., 10., 6., 11., 4., 9. ]
      - [ 7., 9., 13., 4., 10., 7., 8., 13., 3., 14., 1., 6., 11., 13.,
          8., 10., 16., 7., 7., 9., 12., 2., 7., 9., 7., 4., 4., 3., 6.,
          11., 13., 9., 6., 6., 7., 12., 6., 2., 3., 10., 8., 4., 13.,
          3., 4., 8., 1., 10., 15., 14., 5., 7., 5., 13., 3., 10., 4.,
          2., 8., 3., 11., 7., 17., 10. ]
      - [ 1., 6., 8., 14., 1., 13., 1., 25., 1., 9., 12., 3., 16., 10.,
          1., 11., 7., 6., 18., 19., 8., 3., 0., 8., 8., 5., 8., 2., 4.,
          8., 1., 13., 8., 8., 11., 14., 10., 3., 1., 10., 6., 36., 12.,
          5., 5., 2., 20., 11., 3., 5., 8., 3., 8., 5., 13., 4., 2., 6.,
          7., 1., 5., 1., 2., 15. ]
      - [ 9., 1., 11., 9., 2., 4., 2., 33., 1., 5., 7., 1., 13., 4., 0.,
          8., 15., 1., 26., 17., 5., 4., 2., 12., 3., 2., 2., 1., 5.,
          13., 0., 19., 13., 6., 8., 19., 9., 0., 2., 14., 0., 61., 7.,
          3., 6., 1., 34., 16., 1., 4., 9., 5., 4., 6., 10., 9., 1., 3.,
          2., 0., 6., 0., 2., 2. ]
      - [ 7., 9., 3., 3., 14., 9., 14., 4., 5., 9., 12., 10., 4., 8., 9.,
          5., 5., 8., 5., 12., 7., 20., 2., 6., 10., 12., 10., 1., 7.,
          10., 5., 5., 2., 14., 6., 2., 3., 12., 19., 7., 5., 2., 12.,
          11., 8., 12., 6., 3., 9., 5., 8., 8., 6., 8., 9., 7., 12., 10.,
          7., 12., 6., 11., 4., 4. ]
      - [ 4., 1., 8., 3., 4., 6., 9., 24., 2., 4., 5., 3., 9., 6., 6.,
          4., 16., 10., 21., 7., 24., 2., 13., 3., 3., 2., 9., 7., 5.,
          16., 7., 5., 7., 6., 9., 22., 12., 1., 0., 9., 8., 39., 4., 5.,
          11., 3., 19., 15., 4., 0., 4., 1., 4., 13., 4., 8., 5., 10.,
          12., 4., 1., 6., 5., 1. ]
      - [ 10., 8., 9., 5., 6., 7., 8., 10., 7., 13., 3., 5., 4., 12., 5.,
          6., 18., 11., 18., 13., 7., 12., 3., 8., 7., 5., 8., 1., 2.,
          7., 14., 12., 5., 13., 5., 11., 5., 3., 3., 11., 10., 7., 16.,
          10., 6., 5., 3., 6., 3., 8., 11., 9., 5., 8., 5., 6., 6., 6.,
          13., 7., 3., 5., 10., 12. ]
      - [ 9., 13., 8., 6., 5., 5., 2., 11., 3., 24., 8., 3., 6., 11., 6.,
          9., 7., 7., 14., 4., 10., 7., 15., 7., 4., 4., 2., 6., 4., 12.,
          3., 7., 14., 12., 6., 15., 19., 6., 2., 7., 2., 18., 12., 1.,
          11., 11., 8., 6., 7., 4., 10., 11., 10., 4., 7., 6., 2., 7.,
          6., 6., 11., 3., 5., 9. ]
      - [ 7., 22., 12., 20., 7., 4., 2., 21., 4., 7., 10., 2., 9., 15.,
          0., 7., 14., 7., 10., 3., 10., 2., 11., 2., 6., 5., 2., 7.,
          21., 4., 11., 10., 11., 5., 9., 15., 3., 2., 2., 16., 6., 4.,
          4., 2., 13., 2., 5., 12., 4., 6., 4., 5., 19., 4., 4., 16., 3.,
          7., 11., 3., 10., 3., 1., 15. ]
      - [ 10., 5., 1., 7., 3., 12., 18., 14., 10., 2., 10., 6., 2., 3.,
          9., 7., 3., 6., 13., 11., 2., 12., 1., 11., 6., 7., 8., 16.,
          4., 10., 4., 15., 13., 13., 2., 17., 9., 6., 9., 11., 3., 9.,
          9., 19., 12., 0., 14., 2., 1., 5., 16., 25., 6., 7., 5., 4.,
          3., 3., 4., 4., 1., 6., 7., 7. ]
      - [ 6., 6., 6., 7., 0., 8., 5., 13., 3., 17., 3., 3., 12., 12., 8.,
          6., 10., 1., 9., 21., 6., 15., 3., 3., 6., 9., 13., 2., 6., 9.,
          19., 10., 5., 5., 8., 11., 7., 5., 3., 24., 7., 14., 24., 4.,
          8., 2., 9., 14., 4., 12., 10., 9., 9., 3., 7., 6., 3., 5., 4.,
          0., 10., 0., 1., 10. ]
      - [ 5., 15., 3., 10., 2., 9., 2., 25., 4., 8., 10., 5., 11., 12.,
          1., 9., 19., 2., 19., 16., 12., 3., 11., 5., 17., 4., 12., 2.,
          7., 7., 6., 11., 7., 8., 5., 9., 16., 6., 4., 7., 2., 12., 10.,
          7., 19., 0., 11., 6., 1., 3., 14., 11., 3., 4., 18., 6., 3.,
          1., 4., 6., 0., 5., 3., 5. ]
      - [ 17., 8., 7., 4., 4., 5., 8., 16., 10., 8., 6., 8., 2., 9., 7.,
          19., 2., 6., 7., 18., 8., 14., 3., 5., 4., 8., 8., 1., 6., 11.,
          7., 5., 3., 14., 4., 11., 6., 20., 10., 5., 6., 2., 5., 6., 6.,
          3., 1., 8., 11., 8., 11., 14., 7., 9., 12., 8., 14., 11., 4.,
          10., 1., 9., 3., 7. ]
      - [ 5., 19., 11., 8., 15., 1., 11., 16., 5., 0., 5., 6., 11., 11.,
          11., 1., 9., 9., 12., 6., 3., 7., 13., 0., 2., 10., 5., 39.,
          16., 7., 10., 3., 2., 5., 5., 7., 3., 7., 9., 9., 10., 7., 3.,
          3., 1., 15., 10., 10., 2., 7., 1., 4., 7., 9., 8., 8., 9., 8.,
          10., 5., 1., 7., 15., 6. ]
      - [ 11., 9., 20., 6., 7., 4., 3., 27., 2., 1., 2., 9., 14., 3.,
          12., 1., 15., 0., 13., 3., 11., 0., 5., 6., 2., 2., 4., 28.,
          5., 7., 5., 1., 4., 6., 12., 29., 9., 8., 1., 5., 3., 16., 3.,
          2., 11., 1., 12., 31., 6., 4., 4., 2., 10., 23., 6., 16., 2.,
          17., 7., 4., 0., 6., 1., 1. ]
      - [ 21., 11., 3., 3., 12., 5., 8., 5., 28., 6., 9., 6., 2., 6., 6.,
          8., 4., 4., 10., 4., 7., 19., 1., 7., 10., 1., 7., 0., 4., 3.,
          4., 5., 0., 12., 6., 9., 3., 21., 16., 10., 20., 2., 7., 14.,
          12., 8., 3., 1., 11., 3., 7., 5., 2., 4., 5., 3., 16., 3., 7.,
          34., 4., 12., 4., 7. ]
      - [ 13., 1., 7., 6., 3., 8., 4., 18., 8., 3., 11., 6., 4., 4., 5.,
          8., 7., 6., 7., 9., 13., 11., 8., 11., 5., 7., 1., 16., 7.,
          10., 4., 9., 3., 5., 2., 21., 8., 5., 9., 7., 6., 21., 2., 4.,
          15., 2., 26., 18., 6., 3., 6., 3., 8., 13., 4., 7., 12., 5.,
          9., 12., 5., 6., 4., 3. ]
      - [ 7., 3., 7., 9., 8., 5., 7., 17., 4., 7., 13., 16., 9., 7., 5.,
          2., 13., 8., 13., 6., 18., 11., 8., 12., 3., 10., 2., 7., 5.,
          5., 7., 3., 3., 3., 19., 14., 14., 5., 2., 5., 8., 18., 5., 9.,
          11., 5., 10., 10., 5., 8., 6., 1., 7., 7., 4., 18., 3., 10.,
          11., 2., 1., 9., 6., 4. ]
      - [ 4., 4., 5., 5., 0., 10., 10., 14., 10., 4., 5., 9., 8., 8., 4.,
          13., 7., 7., 15., 7., 11., 15., 5., 4., 5., 8., 9., 2., 5.,
          11., 6., 3., 8., 17., 4., 17., 7., 17., 4., 10., 5., 15., 10.,
          15., 12., 0., 8., 4., 3., 8., 10., 14., 3., 2., 19., 6., 4.,
          0., 7., 11., 6., 6., 8., 7. ]
      - [ 23., 9., 6., 2., 10., 1., 11., 16., 6., 3., 11., 10., 2., 8.,
          4., 6., 6., 6., 22., 12., 3., 1., 1., 7., 4., 2., 3., 5., 9.,
          7., 13., 4., 7., 26., 9., 7., 7., 19., 7., 8., 5., 17., 8.,
          12., 3., 9., 6., 6., 7., 7., 8., 2., 3., 9., 8., 1., 10., 14.,
          5., 23., 0., 10., 3., 1. ]
      - [ 15., 11., 3., 8., 8., 13., 19., 1., 14., 8., 4., 18., 1., 8.,
          13., 13., 0., 3., 3., 2., 1., 15., 1., 10., 7., 10., 10., 0.,
          11., 4., 6., 2., 3., 5., 1., 0., 9., 19., 14., 4., 4., 1., 6.,
          12., 4., 19., 1., 1., 8., 8., 8., 7., 0., 6., 5., 3., 21., 2.,
          10., 30., 14., 14., 15., 4. ]
      - [ 8., 6., 12., 13., 0., 2., 3., 29., 2., 8., 6., 6., 1., 9., 5.,
          8., 8., 1., 24., 12., 11., 6., 2., 2., 0., 4., 2., 0., 3., 6.,
          9., 7., 1., 5., 4., 9., 20., 4., 1., 4., 1., 52., 10., 2., 19.,
          3., 54., 10., 2., 1., 13., 10., 4., 5., 18., 6., 1., 4., 7.,
          2., 0., 3., 7., 3. ]
      - [ 13., 12., 13., 12., 0., 7., 1., 41., 1., 10., 6., 1., 12., 5.,
          0., 3., 22., 1., 17., 6., 8., 1., 25., 0., 1., 2., 2., 35., 3.,
          3., 3., 9., 8., 6., 4., 18., 9., 1., 1., 2., 3., 33., 6., 0.,
          8., 0., 32., 17., 3., 0., 3., 4., 15., 5., 13., 15., 4., 0.,
          3., 0., 8., 1., 0., 3. ]
      - [ 11., 5., 9., 3., 3., 5., 12., 13., 2., 12., 24., 6., 13., 5.,
          8., 19., 10., 6., 12., 6., 2., 7., 4., 8., 11., 10., 6., 5.,
          10., 13., 6., 8., 6., 8., 5., 6., 8., 6., 10., 5., 6., 11., 2.,
          4., 15., 4., 20., 17., 6., 8., 10., 3., 5., 0., 3., 7., 7., 7.,
          6., 6., 14., 7., 4., 0. ]
      - [ 7., 4., 4., 4., 13., 10., 9., 8., 12., 6., 15., 11., 4., 8.,
          10., 9., 5., 8., 6., 8., 8., 18., 3., 11., 4., 13., 14., 2.,
          8., 10., 5., 1., 2., 11., 7., 2., 3., 12., 8., 3., 10., 5., 3.,
          25., 7., 2., 0., 0., 13., 13., 4., 16., 1., 2., 9., 6., 22.,
          3., 3., 20., 0., 8., 7., 15. ]
      - [ 16., 13., 12., 5., 2., 7., 4., 24., 3., 9., 8., 5., 6., 9., 6.,
          6., 11., 8., 19., 11., 6., 7., 9., 12., 8., 10., 12., 1., 12.,
          4., 2., 5., 5., 10., 4., 16., 9., 4., 8., 7., 6., 20., 8., 3.,
          4., 4., 5., 6., 9., 2., 2., 8., 2., 6., 7., 15., 11., 2., 9.,
          7., 11., 8., 6., 4. ]
      - [ 5., 9., 14., 17., 8., 11., 7., 10., 21., 9., 3., 5., 3., 7.,
          9., 7., 5., 10., 13., 1., 5., 5., 9., 5., 10., 8., 3., 1., 10.,
          4., 9., 5., 7., 1., 3., 15., 2., 7., 5., 10., 8., 9., 5., 13.,
          9., 7., 8., 8., 4., 5., 12., 10., 12., 7., 12., 20., 7., 6.,
          11., 2., 7., 7., 3., 10. ]
      - [ 13., 4., 5., 4., 2., 15., 5., 16., 1., 12., 5., 0., 9., 13.,
          3., 10., 10., 3., 12., 10., 14., 2., 7., 5., 9., 0., 2., 2.,
          7., 12., 6., 18., 21., 7., 3., 32., 17., 4., 1., 9., 6., 23.,
          6., 5., 10., 2., 13., 13., 4., 2., 8., 2., 15., 10., 8., 14.,
          7., 2., 6., 1., 6., 2., 2., 3. ]
      - [ 8., 1., 13., 1., 8., 8., 15., 26., 13., 4., 5., 11., 5., 3.,
          10., 4., 11., 1., 17., 12., 7., 8., 7., 7., 7., 9., 1., 1., 3.,
          6., 5., 4., 5., 7., 1., 15., 13., 15., 7., 3., 5., 21., 4.,
          12., 7., 9., 14., 6., 13., 1., 4., 7., 3., 4., 3., 13., 17.,
          4., 8., 13., 9., 9., 3., 4. ]
      - [ 9., 5., 10., 5., 17., 6., 19., 8., 14., 2., 3., 7., 3., 8., 9.,
          0., 5., 17., 9., 11., 6., 9., 9., 5., 10., 4., 4., 4., 9., 7.,
          5., 2., 2., 4., 9., 7., 5., 16., 8., 6., 9., 2., 4., 13., 7.,
          11., 13., 5., 10., 10., 4., 7., 6., 10., 1., 3., 15., 12., 15.,
          16., 0., 14., 6., 9. ]
      - [ 2., 6., 3., 10., 6., 11., 5., 15., 7., 8., 11., 2., 5., 6., 4.,
          7., 10., 0., 14., 9., 16., 14., 2., 2., 4., 7., 4., 6., 12.,
          13., 1., 9., 8., 6., 10., 15., 18., 2., 3., 5., 4., 28., 10.,
          6., 6., 1., 22., 13., 1., 5., 10., 8., 10., 1., 33., 4., 2.,
          2., 4., 0., 2., 11., 15., 4. ]
      - [ 6., 8., 12., 2., 30., 3., 15., 5., 14., 1., 2., 14., 4., 15.,
          16., 6., 2., 9., 5., 13., 5., 13., 3., 7., 1., 15., 1., 9.,
          10., 6., 13., 4., 2., 9., 3., 1., 3., 7., 17., 2., 4., 2., 2.,
          13., 7., 16., 0., 6., 6., 7., 2., 12., 3., 7., 4., 8., 13., 8.,
          10., 21., 4., 18., 9., 5. ]
      - [ 7., 3., 10., 7., 11., 6., 4., 12., 3., 6., 14., 7., 6., 9.,
          11., 14., 7., 7., 10., 7., 12., 5., 5., 4., 6., 8., 9., 1.,
          14., 5., 4., 6., 7., 9., 10., 18., 8., 9., 2., 8., 8., 11.,
          12., 7., 13., 1., 7., 4., 12., 5., 8., 15., 6., 7., 7., 14.,
          5., 6., 6., 2., 2., 14., 13., 4. ]
      - [ 7., 22., 10., 11., 8., 8., 4., 15., 7., 6., 14., 2., 3., 8.,
          1., 8., 6., 7., 11., 12., 10., 9., 1., 4., 8., 16., 7., 6., 6.,
          12., 6., 4., 8., 16., 4., 9., 7., 7., 2., 6., 4., 13., 5., 7.,
          12., 1., 8., 15., 3., 11., 12., 4., 0., 9., 10., 4., 10., 1.,
          5., 5., 5., 15., 6., 17. ]
      - [ 5., 6., 33., 5., 8., 3., 3., 21., 4., 5., 17., 5., 6., 6., 12.,
          3., 11., 9., 16., 7., 10., 4., 2., 3., 8., 9., 7., 2., 7., 7.,
          8., 5., 5., 5., 8., 15., 13., 5., 0., 8., 9., 16., 8., 3., 16.,
          4., 11., 8., 10., 3., 2., 4., 5., 7., 8., 11., 6., 15., 11.,
          1., 5., 4., 8., 9. ]
      - [ 10., 4., 7., 9., 3., 4., 10., 17., 4., 8., 8., 3., 4., 12.,
          11., 12., 10., 5., 12., 10., 13., 4., 5., 8., 1., 2., 8., 0.,
          5., 11., 5., 11., 4., 14., 2., 14., 7., 4., 5., 7., 9., 24.,
          13., 9., 7., 6., 8., 14., 6., 5., 12., 7., 7., 9., 8., 12., 4.,
          5., 10., 11., 1., 6., 3., 11. ]
      - [ 5., 12., 8., 7., 8., 5., 6., 11., 5., 6., 8., 4., 4., 18., 11.,
          6., 5., 10., 4., 15., 11., 15., 3., 11., 9., 15., 8., 0., 7.,
          8., 4., 5., 5., 13., 3., 7., 5., 13., 6., 6., 5., 9., 10., 10.,
          6., 11., 2., 5., 6., 4., 11., 12., 6., 6., 9., 6., 12., 1.,
          12., 14., 3., 6., 6., 16. ]
      - [ 4., 5., 3., 3., 3., 5., 10., 10., 9., 6., 11., 8., 1., 12., 5.,
          2., 10., 5., 6., 9., 8., 14., 4., 7., 11., 17., 10., 0., 4.,
          19., 9., 6., 4., 11., 7., 6., 9., 6., 5., 13., 7., 9., 7., 17.,
          8., 6., 11., 3., 10., 13., 14., 15., 5., 3., 8., 10., 6., 3.,
          7., 12., 4., 6., 13., 6. ]
      - [ 2., 2., 5., 1., 16., 10., 5., 9., 14., 10., 3., 9., 1., 17.,
          8., 5., 4., 1., 11., 1., 2., 17., 2., 6., 3., 5., 4., 1., 2.,
          10., 12., 0., 0., 17., 2., 8., 3., 23., 12., 5., 4., 6., 1.,
          102., 3., 18., 3., 1., 6., 2., 0., 15., 1., 4., 5., 2., 14.,
          1., 8., 20., 0., 7., 7., 2. ]
      - [ 7., 14., 16., 6., 6., 4., 2., 8., 4., 18., 8., 6., 9., 5., 8.,
          9., 10., 7., 11., 12., 4., 2., 20., 4., 5., 7., 3., 21., 7.,
          5., 10., 14., 11., 6., 8., 12., 11., 7., 2., 7., 2., 18., 3.,
          10., 10., 2., 10., 15., 1., 9., 5., 3., 22., 4., 5., 7., 4.,
          8., 10., 4., 2., 2., 3., 5. ]
      - [ 13., 4., 5., 6., 7., 11., 9., 13., 9., 8., 8., 13., 3., 12.,
          14., 12., 6., 9., 13., 7., 14., 7., 6., 6., 6., 11., 10., 6.,
          5., 9., 4., 5., 3., 17., 5., 17., 9., 4., 5., 7., 3., 13., 11.,
          14., 15., 5., 4., 4., 9., 8., 5., 5., 9., 9., 8., 9., 4., 0.,
          8., 3., 1., 5., 3., 7. ]
      - [ 13., 3., 22., 5., 7., 4., 1., 19., 2., 3., 4., 4., 10., 6., 3.,
          3., 9., 1., 8., 6., 5., 1., 18., 5., 3., 6., 2., 84., 3., 4.,
          3., 3., 4., 0., 3., 30., 3., 1., 5., 4., 19., 5., 3., 5., 1.,
          1., 11., 21., 2., 3., 1., 1., 22., 14., 1., 26., 2., 9., 12.,
          2., 9., 0., 3., 7. ]
      - [ 11., 6., 6., 2., 4., 15., 4., 24., 6., 10., 10., 14., 6., 5.,
          7., 2., 3., 4., 22., 9., 7., 11., 2., 4., 1., 8., 10., 1., 3.,
          10., 7., 8., 4., 23., 1., 30., 3., 6., 8., 3., 2., 44., 6.,
          10., 12., 3., 18., 2., 3., 3., 2., 6., 2., 4., 10., 12., 1.,
          7., 10., 6., 4., 5., 3., 5. ]
      - [ 11., 9., 8., 0., 16., 12., 9., 10., 7., 5., 15., 7., 3., 7.,
          10., 7., 3., 13., 8., 9., 3., 15., 2., 5., 11., 5., 2., 2., 8.,
          8., 4., 3., 3., 13., 5., 6., 1., 12., 12., 9., 7., 8., 3., 18.,
          12., 6., 2., 6., 6., 7., 14., 9., 4., 6., 5., 6., 19., 4., 7.,
          11., 7., 13., 13., 9. ]
      - [ 8., 7., 7., 6., 8., 6., 6., 13., 4., 2., 12., 9., 7., 9., 7.,
          5., 7., 6., 13., 10., 13., 16., 9., 4., 3., 4., 5., 10., 7.,
          5., 11., 5., 5., 6., 11., 18., 8., 9., 10., 4., 8., 6., 10.,
          11., 19., 12., 9., 8., 7., 6., 5., 9., 7., 7., 2., 9., 4., 4.,
          6., 10., 3., 4., 14., 5. ]
      - [ 7., 6., 0., 4., 11., 12., 7., 12., 10., 14., 5., 6., 2., 14.,
          9., 15., 2., 9., 14., 13., 15., 9., 5., 10., 8., 10., 8., 1.,
          12., 9., 5., 3., 7., 10., 1., 7., 9., 5., 14., 15., 7., 0., 8.,
          4., 10., 10., 3., 3., 4., 12., 6., 18., 2., 2., 4., 4., 8., 3.,
          14., 5., 1., 13., 14., 10. ]
      - [ 4., 7., 11., 7., 9., 1., 6., 9., 7., 20., 6., 10., 4., 3., 8.,
          1., 9., 14., 12., 1., 7., 14., 6., 6., 6., 5., 11., 6., 8., 3.,
          3., 4., 3., 10., 9., 9., 4., 9., 4., 10., 5., 6., 8., 11., 7.,
          10., 4., 8., 6., 10., 13., 6., 5., 6., 15., 8., 5., 10., 14.,
          31., 5., 15., 5., 1. ]
      - [ 9., 1., 10., 4., 1., 7., 1., 15., 11., 10., 24., 10., 2., 11.,
          3., 11., 7., 0., 11., 9., 11., 21., 5., 11., 7., 9., 5., 0.,
          11., 3., 6., 7., 0., 18., 15., 13., 9., 1., 3., 3., 8., 7.,
          10., 2., 10., 8., 3., 11., 9., 8., 7., 6., 7., 11., 15., 5.,
          6., 1., 10., 20., 5., 1., 8., 7. ]
      - [ 7., 8., 12., 8., 13., 3., 11., 8., 11., 16., 6., 4., 7., 6.,
          5., 5., 5., 1., 14., 6., 13., 9., 2., 5., 4., 3., 3., 1., 6.,
          6., 6., 1., 5., 6., 11., 9., 12., 13., 8., 5., 7., 19., 5.,
          15., 11., 6., 19., 6., 6., 2., 8., 8., 8., 9., 4., 8., 23., 3.,
          8., 17., 1., 12., 5., 6. ]
      - [ 11., 2., 3., 1., 5., 1., 10., 13., 5., 0., 8., 24., 6., 10.,
          11., 1., 4., 8., 13., 5., 7., 14., 12., 9., 6., 3., 9., 12.,
          7., 8., 2., 4., 2., 11., 3., 13., 6., 11., 11., 10., 16., 5.,
          10., 13., 7., 2., 13., 22., 10., 7., 17., 7., 3., 7., 4., 1.,
          8., 8., 8., 8., 1., 8., 9., 5. ]
      - [ 10., 3., 16., 13., 3., 11., 3., 21., 2., 8., 6., 4., 6., 5.,
          1., 7., 11., 8., 12., 16., 12., 5., 2., 11., 6., 5., 5., 1.,
          9., 6., 3., 12., 6., 5., 3., 12., 5., 5., 5., 16., 1., 11.,
          23., 8., 16., 1., 3., 8., 9., 3., 17., 7., 13., 10., 10., 10.,
          3., 6., 10., 2., 1., 6., 8., 14. ]
      - [ 3., 3., 3., 4., 5., 4., 30., 33., 3., 7., 7., 7., 1., 10., 8.,
          3., 6., 2., 12., 5., 13., 9., 3., 3., 2., 3., 3., 7., 9., 4.,
          1., 11., 6., 12., 1., 24., 8., 7., 6., 1., 2., 29., 16., 5.,
          10., 1., 35., 20., 2., 1., 6., 9., 4., 8., 9., 5., 9., 6., 9.,
          16., 0., 4., 3., 2. ]
      - [ 1., 12., 21., 9., 12., 6., 2., 16., 4., 0., 1., 2., 7., 6., 4.,
          5., 2., 10., 21., 7., 9., 10., 13., 3., 3., 4., 2., 46., 4.,
          9., 20., 8., 6., 5., 9., 17., 5., 1., 4., 14., 5., 7., 1., 2.,
          5., 8., 6., 21., 2., 1., 4., 2., 15., 23., 1., 17., 0., 7.,
          11., 4., 0., 7., 3., 8. ]
      - [ 6., 9., 5., 9., 9., 3., 8., 7., 4., 12., 15., 6., 1., 7., 5.,
          10., 5., 6., 11., 13., 4., 12., 7., 5., 16., 7., 7., 12., 4.,
          8., 5., 7., 8., 13., 7., 12., 8., 9., 9., 6., 7., 8., 4., 25.,
          4., 3., 1., 8., 6., 6., 9., 10., 4., 7., 11., 10., 10., 4., 5.,
          10., 9., 10., 5., 7. ]
      - [ 5., 7., 3., 6., 3., 9., 1., 31., 8., 9., 8., 2., 9., 16., 3.,
          13., 15., 4., 32., 29., 3., 4., 1., 5., 3., 4., 0., 0., 4.,
          11., 5., 14., 2., 7., 8., 21., 12., 6., 1., 3., 7., 31., 10.,
          6., 9., 2., 13., 17., 9., 5., 3., 4., 22., 3., 7., 4., 0., 1.,
          5., 0., 7., 1., 2., 5. ]
      - [ 20., 10., 10., 6., 4., 7., 6., 11., 5., 2., 14., 20., 10., 11.,
          5., 3., 3., 10., 10., 10., 6., 17., 6., 7., 5., 6., 4., 1., 6.,
          5., 0., 8., 4., 4., 3., 5., 7., 14., 6., 3., 1., 14., 12., 19.,
          4., 1., 10., 6., 9., 7., 3., 7., 3., 6., 10., 11., 13., 4.,
          10., 35., 1., 6., 7., 7. ]
      - [ 8., 17., 13., 20., 6., 1., 0., 23., 4., 15., 9., 2., 4., 17.,
          7., 7., 3., 3., 26., 16., 14., 11., 4., 8., 3., 17., 2., 3.,
          8., 6., 10., 8., 3., 11., 9., 11., 11., 6., 1., 9., 2., 9., 4.,
          2., 13., 8., 6., 4., 6., 5., 7., 10., 11., 3., 8., 11., 4., 5.,
          9., 1., 1., 1., 4., 10. ]
      - [ 13., 4., 13., 11., 3., 4., 1., 13., 3., 9., 7., 3., 10., 15.,
          4., 10., 18., 3., 21., 18., 9., 8., 2., 6., 8., 4., 4., 6.,
          10., 10., 8., 4., 6., 10., 1., 6., 13., 3., 2., 6., 1., 8.,
          17., 9., 16., 8., 9., 14., 0., 6., 14., 7., 3., 6., 11., 10.,
          4., 3., 9., 6., 6., 5., 12., 7. ]
      - [ 5., 4., 15., 4., 5., 0., 9., 20., 3., 7., 7., 5., 2., 9., 3.,
          5., 18., 3., 9., 11., 17., 6., 10., 14., 4., 12., 4., 4., 11.,
          1., 6., 12., 5., 0., 1., 34., 5., 8., 3., 6., 10., 3., 4., 6.,
          11., 0., 13., 22., 19., 7., 3., 7., 7., 4., 0., 15., 6., 15.,
          13., 7., 7., 8., 1., 5. ]
      - [ 3., 14., 12., 5., 0., 11., 1., 18., 4., 19., 3., 0., 15., 6.,
          0., 10., 18., 3., 14., 12., 10., 2., 5., 3., 1., 1., 7., 13.,
          6., 4., 8., 16., 18., 13., 7., 14., 10., 0., 0., 11., 2., 11.,
          14., 6., 6., 1., 8., 19., 4., 2., 10., 11., 13., 6., 12., 20.,
          1., 6., 5., 0., 16., 0., 4., 6. ]
      - [ 5., 5., 13., 4., 18., 2., 11., 9., 5., 1., 6., 20., 3., 6.,
          14., 3., 1., 6., 6., 10., 3., 17., 5., 17., 8., 16., 8., 9.,
          5., 7., 6., 2., 7., 6., 3., 11., 7., 13., 9., 8., 4., 2., 8.,
          9., 10., 20., 6., 13., 7., 9., 3., 8., 2., 7., 1., 6., 19., 3.,
          7., 16., 0., 12., 12., 1. ]
      - [ 4., 4., 7., 21., 4., 11., 2., 22., 2., 19., 13., 5., 12., 5.,
          4., 14., 9., 1., 8., 16., 5., 9., 2., 9., 6., 8., 8., 0., 4.,
          6., 7., 9., 9., 9., 9., 14., 6., 4., 4., 10., 9., 31., 11.,
          10., 4., 2., 12., 4., 6., 6., 9., 2., 4., 4., 18., 8., 2., 11.,
          3., 4., 2., 1., 2., 14. ]
      - [ 6., 2., 20., 5., 3., 10., 4., 18., 2., 5., 4., 5., 2., 6., 5.,
          7., 20., 7., 7., 14., 8., 1., 11., 7., 9., 3., 10., 2., 2.,
          15., 7., 11., 13., 7., 7., 17., 9., 5., 4., 4., 3., 11., 4.,
          3., 18., 4., 6., 13., 4., 6., 16., 2., 4., 19., 12., 17., 0.,
          14., 9., 2., 13., 4., 5., 7. ]
      - [ 8., 7., 22., 10., 4., 7., 2., 18., 6., 4., 11., 1., 15., 16.,
          4., 6., 10., 2., 42., 10., 12., 11., 4., 4., 6., 3., 4., 6.,
          17., 8., 6., 9., 5., 15., 8., 18., 4., 2., 0., 6., 1., 15., 5.,
          4., 11., 1., 21., 15., 2., 2., 4., 11., 1., 8., 4., 10., 6.,
          5., 8., 6., 1., 3., 1., 2. ]
      - [ 8., 7., 0., 4., 16., 7., 13., 2., 9., 4., 7., 16., 5., 5., 7.,
          8., 0., 11., 7., 6., 10., 8., 1., 11., 21., 14., 9., 2., 12.,
          7., 9., 1., 6., 8., 3., 4., 0., 11., 4., 12., 2., 1., 5., 11.,
          11., 9., 1., 8., 7., 5., 5., 11., 1., 5., 36., 3., 15., 5., 5.,
          18., 3., 20., 10., 8. ]
      - [ 9., 9., 14., 12., 0., 7., 2., 15., 4., 4., 1., 1., 13., 5., 4.,
          8., 23., 5., 7., 13., 3., 9., 3., 14., 3., 1., 5., 8., 4., 4.,
          3., 9., 9., 14., 5., 16., 13., 4., 1., 8., 5., 8., 28., 7., 7.,
          0., 6., 21., 9., 3., 24., 4., 11., 7., 25., 16., 2., 2., 1.,
          0., 6., 4., 6., 6. ]
      - [ 7., 22., 9., 17., 4., 14., 6., 21., 2., 11., 7., 3., 4., 13.,
          0., 5., 10., 4., 14., 9., 9., 5., 25., 5., 6., 2., 13., 9., 8.,
          7., 3., 17., 8., 9., 4., 16., 11., 6., 5., 8., 4., 6., 8., 3.,
          5., 2., 13., 8., 6., 8., 5., 3., 7., 3., 5., 8., 5., 7., 7.,
          1., 8., 0., 4., 16. ]
      - [ 8., 2., 10., 1., 4., 8., 5., 12., 4., 19., 14., 10., 0., 6.,
          3., 5., 6., 20., 12., 7., 8., 6., 11., 3., 16., 9., 11., 4.,
          8., 7., 5., 7., 5., 9., 3., 10., 10., 16., 6., 6., 5., 6., 7.,
          9., 12., 10., 9., 5., 1., 6., 6., 6., 11., 14., 2., 21., 8.,
          7., 10., 10., 2., 12., 4., 1. ]
      - [ 9., 8., 2., 12., 2., 7., 6., 23., 3., 12., 11., 11., 6., 8.,
          5., 3., 11., 7., 16., 5., 6., 2., 1., 6., 13., 2., 8., 3., 3.,
          11., 4., 5., 7., 7., 4., 17., 7., 10., 3., 3., 3., 33., 5.,
          13., 8., 1., 40., 5., 2., 5., 6., 14., 2., 8., 15., 6., 5., 1.,
          5., 11., 3., 9., 5., 6. ]
      - [ 5., 9., 11., 5., 7., 4., 4., 40., 4., 0., 12., 4., 10., 7., 2.,
          0., 13., 1., 37., 7., 12., 3., 8., 4., 1., 5., 1., 34., 7., 3.,
          8., 8., 3., 2., 2., 33., 16., 1., 5., 6., 1., 23., 4., 2., 11.,
          1., 29., 23., 4., 4., 1., 0., 6., 8., 3., 10., 3., 7., 8., 1.,
          2., 2., 0., 3. ]
      - [ 8., 10., 23., 8., 5., 0., 2., 27., 0., 4., 4., 6., 9., 1., 0.,
          0., 8., 10., 18., 2., 7., 7., 28., 2., 0., 3., 1., 27., 1., 6.,
          4., 6., 4., 2., 11., 22., 18., 1., 2., 10., 4., 19., 1., 0.,
          9., 1., 29., 29., 1., 1., 7., 3., 7., 14., 5., 17., 2., 16.,
          16., 3., 3., 4., 1., 1. ]
      - [ 9., 4., 7., 2., 5., 13., 9., 6., 6., 7., 13., 8., 2., 9., 8.,
          10., 2., 10., 11., 6., 8., 14., 5., 18., 9., 4., 10., 2., 7.,
          10., 5., 8., 1., 7., 6., 10., 10., 9., 10., 9., 5., 6., 10.,
          7., 11., 8., 14., 3., 5., 5., 19., 15., 3., 6., 7., 3., 9., 7.,
          9., 12., 2., 12., 6., 7. ]
      - [ 5., 12., 13., 9., 3., 5., 0., 13., 1., 14., 6., 1., 12., 6.,
          2., 9., 12., 5., 22., 18., 15., 3., 1., 8., 7., 12., 9., 2.,
          10., 19., 3., 13., 10., 8., 4., 10., 13., 1., 1., 8., 6., 21.,
          12., 8., 8., 2., 13., 22., 2., 4., 9., 3., 12., 1., 12., 8.,
          2., 5., 5., 1., 4., 4., 2., 9. ]
      - [ 8., 7., 12., 5., 2., 3., 3., 28., 1., 8., 8., 3., 9., 1., 5.,
          0., 7., 10., 22., 11., 17., 8., 15., 6., 2., 2., 3., 10., 5.,
          18., 5., 9., 5., 9., 4., 12., 19., 0., 2., 5., 6., 22., 4., 0.,
          15., 2., 22., 9., 4., 4., 10., 1., 6., 21., 2., 11., 7., 8.,
          13., 5., 11., 2., 2., 4. ]
      - [ 10., 4., 3., 16., 6., 2., 8., 12., 8., 15., 15., 9., 6., 1.,
          6., 7., 8., 8., 11., 13., 8., 10., 7., 3., 16., 3., 4., 1., 1.,
          7., 0., 16., 16., 15., 6., 4., 13., 9., 4., 6., 5., 4., 8.,
          19., 12., 6., 15., 7., 3., 4., 13., 11., 3., 11., 7., 9., 9.,
          6., 6., 9., 2., 7., 5., 2. ]
      - [ 6., 3., 1., 2., 1., 5., 31., 17., 16., 6., 4., 15., 4., 3.,
          15., 6., 3., 6., 21., 11., 6., 3., 7., 8., 13., 3., 9., 0., 4.,
          7., 4., 5., 5., 13., 5., 10., 3., 26., 14., 9., 16., 10., 0.,
          11., 6., 10., 5., 4., 7., 10., 4., 9., 12., 6., 2., 5., 4., 2.,
          1., 10., 11., 19., 6., 0. ]
      - [ 23., 15., 6., 3., 1., 7., 0., 12., 2., 5., 6., 4., 11., 13.,
          2., 8., 8., 8., 20., 11., 8., 1., 9., 15., 7., 1., 5., 1., 5.,
          13., 1., 20., 7., 3., 6., 27., 16., 1., 1., 12., 1., 16., 13.,
          1., 13., 8., 10., 15., 1., 7., 1., 3., 7., 13., 5., 19., 2.,
          1., 6., 7., 14., 2., 9., 2. ]
      - [ 5., 2., 20., 12., 9., 11., 9., 23., 2., 3., 13., 7., 13., 7.,
          5., 11., 2., 6., 32., 6., 17., 7., 5., 6., 3., 6., 5., 18., 7.,
          8., 5., 15., 2., 13., 6., 8., 6., 3., 5., 3., 1., 21., 7., 3.,
          19., 4., 13., 5., 0., 2., 13., 7., 6., 14., 8., 7., 4., 2., 3.,
          3., 0., 3., 5., 4. ]
      - [ 7., 15., 7., 10., 7., 15., 2., 18., 8., 16., 14., 3., 6., 6.,
          0., 9., 11., 5., 15., 9., 7., 7., 7., 11., 5., 9., 7., 7., 4.,
          9., 1., 7., 7., 12., 4., 21., 21., 5., 0., 7., 2., 8., 13., 6.,
          10., 1., 11., 13., 5., 7., 11., 6., 2., 4., 11., 20., 4., 3.,
          2., 3., 8., 0., 3., 6. ]
      - [ 11., 8., 4., 2., 10., 7., 2., 5., 9., 10., 19., 8., 7., 14.,
          11., 14., 1., 8., 4., 15., 7., 16., 2., 13., 14., 9., 16., 2.,
          9., 3., 6., 4., 8., 8., 7., 6., 2., 15., 5., 4., 8., 3., 5.,
          8., 6., 7., 3., 5., 10., 6., 13., 12., 6., 8., 15., 4., 5., 3.,
          7., 9., 4., 13., 5., 10. ]
      - [ 8., 8., 3., 8., 7., 12., 2., 8., 11., 19., 5., 11., 5., 4., 6.,
          21., 15., 3., 5., 6., 8., 8., 2., 8., 11., 3., 17., 0., 8.,
          26., 11., 6., 2., 15., 10., 4., 8., 6., 4., 12., 9., 4., 5.,
          22., 4., 6., 1., 6., 4., 9., 16., 11., 2., 9., 10., 6., 6., 1.,
          4., 3., 7., 8., 5., 6. ]
      - [ 12., 10., 12., 16., 5., 6., 4., 11., 11., 2., 15., 4., 4., 8.,
          5., 2., 7., 11., 22., 12., 7., 8., 6., 9., 5., 12., 5., 7., 4.,
          15., 4., 7., 4., 19., 4., 12., 5., 5., 8., 9., 2., 5., 5., 10.,
          11., 4., 14., 16., 11., 5., 9., 10., 7., 7., 4., 6., 6., 1.,
          8., 4., 1., 4., 5., 11. ]
      - [ 15., 3., 7., 1., 2., 7., 9., 8., 8., 6., 22., 11., 6., 8., 4.,
          7., 5., 8., 14., 12., 14., 11., 3., 11., 2., 7., 7., 2., 5.,
          5., 4., 1., 3., 15., 8., 13., 12., 11., 13., 4., 8., 27., 3.,
          13., 10., 3., 5., 5., 2., 5., 7., 13., 7., 10., 4., 6., 8., 4.,
          5., 9., 9., 9., 8., 6. ]
      - [ 6., 6., 3., 2., 23., 6., 17., 7., 5., 6., 7., 7., 2., 11., 7.,
          7., 6., 16., 8., 4., 3., 7., 5., 6., 8., 7., 3., 0., 6., 4.,
          7., 3., 2., 6., 7., 3., 7., 19., 12., 5., 10., 3., 3., 13., 3.,
          10., 5., 3., 9., 6., 5., 6., 2., 9., 8., 16., 29., 9., 7., 16.,
          7., 21., 15., 9. ]
      - [ 5., 6., 2., 8., 11., 8., 8., 12., 9., 6., 14., 10., 5., 6., 4.,
          9., 1., 12., 15., 15., 5., 12., 7., 5., 7., 15., 8., 3., 12.,
          6., 10., 7., 4., 8., 3., 11., 3., 9., 6., 12., 6., 9., 2., 9.,
          12., 4., 11., 7., 10., 5., 4., 9., 9., 10., 8., 10., 5., 7.,
          10., 12., 2., 4., 8., 8. ]
      - [ 6., 10., 5., 12., 5., 8., 2., 19., 2., 12., 10., 2., 13., 15.,
          2., 9., 19., 5., 19., 25., 6., 3., 3., 2., 3., 6., 13., 8., 7.,
          9., 7., 22., 9., 14., 6., 8., 10., 0., 3., 10., 3., 8., 4.,
          11., 4., 0., 18., 15., 4., 9., 8., 1., 11., 3., 15., 1., 2.,
          3., 14., 0., 2., 2., 2., 11. ]
      - [ 10., 5., 16., 11., 4., 3., 8., 4., 4., 9., 1., 12., 12., 2.,
          12., 5., 10., 5., 3., 4., 3., 16., 21., 6., 3., 11., 10., 39.,
          3., 3., 8., 7., 6., 7., 6., 7., 7., 3., 4., 8., 4., 3., 2., 2.,
          5., 5., 14., 11., 11., 7., 4., 10., 7., 19., 6., 17., 13., 5.,
          5., 8., 8., 7., 3., 6. ]
      - [ 10., 4., 2., 3., 5., 10., 17., 19., 3., 13., 5., 8., 5., 7.,
          2., 0., 9., 14., 8., 7., 8., 11., 6., 11., 11., 8., 11., 6.,
          7., 6., 0., 6., 4., 16., 7., 13., 11., 5., 8., 5., 8., 10.,
          10., 9., 7., 5., 19., 7., 8., 11., 8., 2., 2., 11., 4., 9., 6.,
          11., 10., 11., 3., 10., 5., 3. ]
      - [ 13., 8., 6., 6., 7., 6., 4., 18., 10., 14., 8., 5., 7., 22.,
          6., 8., 5., 3., 24., 9., 10., 11., 1., 17., 2., 2., 6., 1.,
          11., 9., 19., 3., 10., 11., 4., 6., 7., 2., 8., 8., 2., 14.,
          12., 13., 13., 9., 5., 2., 3., 6., 7., 11., 4., 1., 3., 4., 3.,
          6., 11., 2., 2., 12., 10., 8. ]
      - [ 15., 3., 16., 1., 7., 3., 2., 20., 4., 5., 8., 2., 7., 7., 5.,
          8., 9., 10., 22., 15., 13., 13., 8., 9., 3., 3., 7., 3., 7.,
          11., 7., 9., 3., 13., 8., 12., 11., 4., 4., 9., 2., 10., 4.,
          2., 9., 9., 15., 4., 7., 8., 11., 7., 5., 11., 7., 10., 5., 8.,
          3., 9., 5., 10., 9., 4. ]
      - [ 3., 4., 9., 12., 5., 9., 4., 7., 7., 26., 3., 4., 15., 3., 1.,
          6., 5., 13., 12., 9., 15., 3., 3., 4., 11., 5., 9., 0., 8.,
          16., 11., 10., 17., 13., 4., 9., 10., 4., 3., 7., 3., 18., 10.,
          8., 2., 3., 12., 3., 6., 8., 15., 5., 3., 4., 18., 5., 11., 4.,
          5., 12., 1., 13., 8., 4. ]
      - [ 20., 4., 12., 4., 7., 4., 10., 7., 7., 6., 10., 4., 2., 5.,
          16., 4., 6., 13., 2., 5., 10., 6., 8., 13., 9., 7., 9., 7.,
          11., 6., 10., 3., 4., 13., 6., 7., 5., 12., 16., 6., 12., 2.,
          15., 8., 2., 10., 5., 5., 6., 9., 10., 14., 4., 9., 3., 4., 9.,
          6., 7., 14., 4., 11., 10., 5. ]
      - [ 9., 4., 14., 7., 7., 0., 3., 26., 1., 4., 11., 2., 3., 12., 4.,
          1., 6., 1., 19., 12., 14., 7., 15., 1., 0., 8., 1., 103., 4.,
          4., 3., 7., 7., 3., 5., 15., 8., 1., 4., 2., 3., 10., 1., 0.,
          17., 2., 10., 12., 5., 1., 8., 3., 16., 6., 14., 10., 4., 5.,
          6., 1., 2., 4., 2., 0. ]
      - [ 9., 5., 20., 6., 6., 8., 7., 13., 5., 4., 9., 6., 4., 12., 4.,
          13., 11., 11., 9., 11., 9., 10., 7., 6., 8., 3., 8., 5., 4.,
          7., 8., 5., 3., 18., 6., 8., 10., 6., 2., 8., 8., 7., 7., 8.,
          15., 4., 14., 3., 2., 2., 14., 9., 8., 5., 12., 4., 9., 12.,
          7., 10., 8., 1., 8., 9. ]
      - [ 7., 5., 26., 14., 2., 14., 0., 17., 2., 19., 5., 1., 12., 7.,
          2., 8., 19., 5., 18., 14., 6., 1., 7., 5., 6., 1., 5., 12., 5.,
          12., 12., 11., 15., 9., 7., 11., 11., 0., 1., 13., 3., 10., 9.,
          9., 5., 1., 10., 4., 4., 4., 6., 7., 9., 17., 6., 22., 0., 9.,
          4., 0., 3., 1., 6., 4. ]
      - [ 15., 8., 6., 7., 6., 3., 10., 10., 0., 11., 8., 4., 5., 5., 4.,
          4., 15., 4., 8., 14., 13., 9., 2., 12., 15., 7., 8., 3., 8.,
          9., 1., 3., 15., 6., 5., 7., 8., 3., 4., 9., 1., 6., 7., 12.,
          2., 7., 5., 8., 8., 4., 12., 2., 6., 5., 7., 8., 7., 4., 13.,
          10., 5., 13., 1., 6. ]
      - [ 11., 10., 7., 11., 3., 10., 7., 11., 3., 9., 15., 16., 1., 3.,
          15., 3., 10., 3., 10., 13., 6., 3., 11., 8., 6., 3., 14., 0.,
